{"learner":{"attributes":{"best_iteration":"541","best_score":"0.45499241339515034","scikit_learn":"{\"_estimator_type\": \"regressor\"}"},"feature_names":[],"feature_types":[],"gradient_booster":{"model":{"cats":{"enc":[],"feature_segments":[],"sorted_idx":[]},"gbtree_model_param":{"num_parallel_tree":"1","num_trees":"552"},"iteration_indptr":[0,1,2,3,4,5,6,7,8,9,10,11,12,13,14,15,16,17,18,19,20,21,22,23,24,25,26,27,28,29,30,31,32,33,34,35,36,37,38,39,40,41,42,43,44,45,46,47,48,49,50,51,52,53,54,55,56,57,58,59,60,61,62,63,64,65,66,67,68,69,70,71,72,73,74,75,76,77,78,79,80,81,82,83,84,85,86,87,88,89,90,91,92,93,94,95,96,97,98,99,100,101,102,103,104,105,106,107,108,109,110,111,112,113,114,115,116,117,118,119,120,121,122,123,124,125,126,127,128,129,130,131,132,133,134,135,136,137,138,139,140,141,142,143,144,145,146,147,148,149,150,151,152,153,154,155,156,157,158,159,160,161,162,163,164,165,166,167,168,169,170,171,172,173,174,175,176,177,178,179,180,181,182,183,184,185,186,187,188,189,190,191,192,193,194,195,196,197,198,199,200,201,202,203,204,205,206,207,208,209,210,211,212,213,214,215,216,217,218,219,220,221,222,223,224,225,226,227,228,229,230,231,232,233,234,235,236,237,238,239,240,241,242,243,244,245,246,247,248,249,250,251,252,253,254,255,256,257,258,259,260,261,262,263,264,265,266,267,268,269,270,271,272,273,274,275,276,277,278,279,280,281,282,283,284,285,286,287,288,289,290,291,292,293,294,295,296,297,298,299,300,301,302,303,304,305,306,307,308,309,310,311,312,313,314,315,316,317,318,319,320,321,322,323,324,325,326,327,328,329,330,331,332,333,334,335,336,337,338,339,340,341,342,343,344,345,346,347,348,349,350,351,352,353,354,355,356,357,358,359,360,361,362,363,364,365,366,367,368,369,370,371,372,373,374,375,376,377,378,379,380,381,382,383,384,385,386,387,388,389,390,391,392,393,394,395,396,397,398,399,400,401,402,403,404,405,406,407,408,409,410,411,412,413,414,415,416,417,418,419,420,421,422,423,424,425,426,427,428,429,430,431,432,433,434,435,436,437,438,439,440,441,442,443,444,445,446,447,448,449,450,451,452,453,454,455,456,457,458,459,460,461,462,463,464,465,466,467,468,469,470,471,472,473,474,475,476,477,478,479,480,481,482,483,484,485,486,487,488,489,490,491,492,493,494,495,496,497,498,499,500,501,502,503,504,505,506,507,508,509,510,511,512,513,514,515,516,517,518,519,520,521,522,523,524,525,526,527,528,529,530,531,532,533,534,535,536,537,538,539,540,541,542,543,544,545,546,547,548,549,550,551,552],"tree_info":[0,0,0,0,0,0,0,0,0,0,0,0,0,0,0,0,0,0,0,0,0,0,0,0,0,0,0,0,0,0,0,0,0,0,0,0,0,0,0,0,0,0,0,0,0,0,0,0,0,0,0,0,0,0,0,0,0,0,0,0,0,0,0,0,0,0,0,0,0,0,0,0,0,0,0,0,0,0,0,0,0,0,0,0,0,0,0,0,0,0,0,0,0,0,0,0,0,0,0,0,0,0,0,0,0,0,0,0,0,0,0,0,0,0,0,0,0,0,0,0,0,0,0,0,0,0,0,0,0,0,0,0,0,0,0,0,0,0,0,0,0,0,0,0,0,0,0,0,0,0,0,0,0,0,0,0,0,0,0,0,0,0,0,0,0,0,0,0,0,0,0,0,0,0,0,0,0,0,0,0,0,0,0,0,0,0,0,0,0,0,0,0,0,0,0,0,0,0,0,0,0,0,0,0,0,0,0,0,0,0,0,0,0,0,0,0,0,0,0,0,0,0,0,0,0,0,0,0,0,0,0,0,0,0,0,0,0,0,0,0,0,0,0,0,0,0,0,0,0,0,0,0,0,0,0,0,0,0,0,0,0,0,0,0,0,0,0,0,0,0,0,0,0,0,0,0,0,0,0,0,0,0,0,0,0,0,0,0,0,0,0,0,0,0,0,0,0,0,0,0,0,0,0,0,0,0,0,0,0,0,0,0,0,0,0,0,0,0,0,0,0,0,0,0,0,0,0,0,0,0,0,0,0,0,0,0,0,0,0,0,0,0,0,0,0,0,0,0,0,0,0,0,0,0,0,0,0,0,0,0,0,0,0,0,0,0,0,0,0,0,0,0,0,0,0,0,0,0,0,0,0,0,0,0,0,0,0,0,0,0,0,0,0,0,0,0,0,0,0,0,0,0,0,0,0,0,0,0,0,0,0,0,0,0,0,0,0,0,0,0,0,0,0,0,0,0,0,0,0,0,0,0,0,0,0,0,0,0,0,0,0,0,0,0,0,0,0,0,0,0,0,0,0,0,0,0,0,0,0,0,0,0,0,0,0,0,0,0,0,0,0,0,0,0,0,0,0,0,0,0,0,0,0,0,0,0,0,0,0,0,0,0,0,0,0,0,0,0,0,0,0,0,0,0,0,0,0,0,0,0,0,0,0,0,0,0,0,0,0,0,0,0,0,0,0,0,0,0,0,0,0,0,0,0,0,0,0,0,0,0,0,0,0,0,0,0,0,0,0,0,0,0],"trees":[{"base_weights":[7.8074756E-8,-3.3445087E-1,1.2646004E0,-7.143344E-1,1.4299E-2,8.6241084E-1,2.157467E0,-4.4698152E-1,-9.071237E-1,7.357087E-1,-1.8305266E-1,1.4227115E0,5.491042E-1,1.6766824E0,2.502606E0,-6.8915105E-1,-1.5608436E-1,-1.1129521E0,-7.2251076E-1,2.303086E-1,1.0552752E0,-3.529857E-1,7.3647276E-2,8.9214456E-1,1.6573087E0,2.75116E-1,8.2059366E-1,1.3565645E0,2.1784987E0,2.2206035E0,2.6950827E0,-3.1251344E-1,-8.969643E-1,4.9295926E-1,-3.0513656E-1,-9.168223E-1,-1.213677E0,-2.973445E-1,-8.0944157E-1,-1.0248317E-1,4.0185872E-1,1.2691239E0,8.582588E-2,-4.1677654E-1,1.0397209E-1,3.4496313E-1,-1.2008434E-1,6.097017E-1,1.2417976E0,2.4503856E0,1.4789242E0,5.516752E-1,1.2340326E-1,6.8643326E-1,1.2396697E0,1.1203632E0,1.5163363E0,2.3637338E0,1.5400524E0,1.8799558E0,2.683761E0,3.667126E-1,2.7264025E0,-3.0182127E-2,-6.4433576E-3,-5.050376E-2,-3.375452E-2,3.8909435E-2,-3.4486938E-3,3.855992E-2,-1.761299E-2,-1.9138288E-2,-4.978284E-2,-5.699699E-2,-7.11178E-2,-5.2603646E-3,-3.4032688E-2,-3.0076006E-2,-4.6294153E-2,6.6064107E-3,-1.9037822E-2,9.690157E-3,4.3236297E-2,9.189477E-2,4.7569595E-2,1.9296834E-2,-2.8110856E-2,-1.1806051E-2,-2.755451E-2,3.8070742E-2,-6.6803405E-3,1.1521776E-2,4.051323E-2,7.4510993E-3,-1.0691766E-2,-1.9182608E-2,3.3838984E-2,6.874045E-2,1.5811866E-2,1.292681E-1,3.466903E-2,5.571816E-2,8.7897226E-2,1.3670948E-2,3.5687353E-2,-5.057056E-3,1.1765075E-2,2.7255494E-2,4.4849437E-2,6.674385E-2,7.530616E-3,3.7621271E-3,5.7850856E-2,8.349551E-2,6.1243474E-2,7.704249E-2,1.20551646E-1,-8.748672E-3,7.93075E-2,7.95462E-2,1.02810994E-1,1.3483366E-1,3.287633E-2,6.110194E-2,-1.8323008E-2,8.599097E-2,1.3841105E-1],"categories":[],"categories_nodes":[],"categories_segments":[],"categories_sizes":[],"default_left":[0,0,0,0,0,0,0,0,0,0,0,0,0,0,0,0,0,0,0,0,0,0,0,0,0,0,0,0,0,0,0,0,0,0,0,0,0,0,0,0,0,0,0,0,0,0,0,0,0,0,0,0,0,0,0,0,0,0,0,0,0,0,0,0,0,0,0,0,0,0,0,0,0,0,0,0,0,0,0,0,0,0,0,0,0,0,0,0,0,0,0,0,0,0,0,0,0,0,0,0,0,0,0,0,0,0,0,0,0,0,0,0,0,0,0,0,0,0,0,0,0,0,0,0,0,0,0],"id":0,"left_children":[1,3,5,7,9,11,13,15,17,19,21,23,25,27,29,31,33,35,37,39,41,43,45,47,49,51,53,55,57,59,61,63,65,67,69,71,73,75,77,79,81,83,85,87,89,91,93,95,97,99,101,103,105,107,109,111,113,115,117,119,121,123,125,-1,-1,-1,-1,-1,-1,-1,-1,-1,-1,-1,-1,-1,-1,-1,-1,-1,-1,-1,-1,-1,-1,-1,-1,-1,-1,-1,-1,-1,-1,-1,-1,-1,-1,-1,-1,-1,-1,-1,-1,-1,-1,-1,-1,-1,-1,-1,-1,-1,-1,-1,-1,-1,-1,-1,-1,-1,-1,-1,-1,-1,-1,-1,-1],"loss_changes":[6.984543E3,1.7302559E3,1.2384761E3,3.2178833E2,9.6968396E2,4.1754456E2,1.7368896E2,1.8453253E2,1.371687E2,2.360445E2,2.333154E2,1.0481848E2,1.1358316E2,6.949365E1,2.7776855E1,1.1164618E2,1.1546615E2,3.2767334E1,7.0611694E1,3.2468567E1,1.8564587E2,9.384711E1,1.12052025E2,2.5314728E1,7.998645E1,3.1945538E1,4.2328552E1,8.792419E0,1.6937317E1,3.566028E1,2.5617432E1,2.7189247E1,2.2431885E1,3.5796097E1,4.9470413E1,2.429071E1,1.5766357E1,2.401128E1,3.796228E1,1.2715807E1,3.5945713E1,1.3089746E2,3.1917988E1,6.839282E1,6.179856E1,4.713468E1,3.1416718E1,1.0121208E1,1.3969116E1,2.3582825E1,4.7375122E1,1.1981171E1,1.2436102E1,1.6888794E1,1.8980927E1,4.3566284E0,5.250702E0,1.4616089E0,3.597992E0,4.472473E0,1.0263672E0,4.2104397E0,1.0392822E1,0E0,0E0,0E0,0E0,0E0,0E0,0E0,0E0,0E0,0E0,0E0,0E0,0E0,0E0,0E0,0E0,0E0,0E0,0E0,0E0,0E0,0E0,0E0,0E0,0E0,0E0,0E0,0E0,0E0,0E0,0E0,0E0,0E0,0E0,0E0,0E0,0E0,0E0,0E0,0E0,0E0,0E0,0E0,0E0,0E0,0E0,0E0,0E0,0E0,0E0,0E0,0E0,0E0,0E0,0E0,0E0,0E0,0E0,0E0,0E0,0E0,0E0,0E0,0E0],"parents":[2147483647,0,0,1,1,2,2,3,3,4,4,5,5,6,6,7,7,8,8,9,9,10,10,11,11,12,12,13,13,14,14,15,15,16,16,17,17,18,18,19,19,20,20,21,21,22,22,23,23,24,24,25,25,26,26,27,27,28,28,29,29,30,30,31,31,32,32,33,33,34,34,35,35,36,36,37,37,38,38,39,39,40,40,41,41,42,42,43,43,44,44,45,45,46,46,47,47,48,48,49,49,50,50,51,51,52,52,53,53,54,54,55,55,56,56,57,57,58,58,59,59,60,60,61,61,62,62],"right_children":[2,4,6,8,10,12,14,16,18,20,22,24,26,28,30,32,34,36,38,40,42,44,46,48,50,52,54,56,58,60,62,64,66,68,70,72,74,76,78,80,82,84,86,88,90,92,94,96,98,100,102,104,106,108,110,112,114,116,118,120,122,124,126,-1,-1,-1,-1,-1,-1,-1,-1,-1,-1,-1,-1,-1,-1,-1,-1,-1,-1,-1,-1,-1,-1,-1,-1,-1,-1,-1,-1,-1,-1,-1,-1,-1,-1,-1,-1,-1,-1,-1,-1,-1,-1,-1,-1,-1,-1,-1,-1,-1,-1,-1,-1,-1,-1,-1,-1,-1,-1,-1,-1,-1,-1,-1,-1],"split_conditions":[5.0736E0,3.0714E0,6.828E0,4.314229E0,2.3433242E0,2.669708E0,7.8287E0,2.2328E0,2.3687E0,2.5E1,4.125E0,2.2E1,5.7214E0,2.7E1,8.7471E0,3.4459016E0,2.0333333E0,3.529E1,2.2950819E0,3.5268E0,3.782E1,4.4E1,2.8312712E0,5.7214E0,2.144781E0,2.9625669E0,2.8E1,1.01002E0,3.758E1,2.9E1,4.805646E0,3.405E1,1.962E0,-1.1826E2,-1.2236E2,-1.1831E2,-1.1985E2,3.792E1,3.451E1,4.5846868E0,1.9E1,1.9598699E0,-1.2203E2,5.1144576E0,-1.2239E2,4E1,-1.2145E2,3.16E2,3.796E1,3.79E1,5.5942E0,2.3E1,1.7E1,6.2924E0,3.3522012E0,2.0858505E0,-1.1784E2,9.453125E-1,3.766E1,1.0094192E0,3.855E1,3.6E1,1.38E2,-3.0182127E-2,-6.4433576E-3,-5.050376E-2,-3.375452E-2,3.8909435E-2,-3.4486938E-3,3.855992E-2,-1.761299E-2,-1.9138288E-2,-4.978284E-2,-5.699699E-2,-7.11178E-2,-5.2603646E-3,-3.4032688E-2,-3.0076006E-2,-4.6294153E-2,6.6064107E-3,-1.9037822E-2,9.690157E-3,4.3236297E-2,9.189477E-2,4.7569595E-2,1.9296834E-2,-2.8110856E-2,-1.1806051E-2,-2.755451E-2,3.8070742E-2,-6.6803405E-3,1.1521776E-2,4.051323E-2,7.4510993E-3,-1.0691766E-2,-1.9182608E-2,3.3838984E-2,6.874045E-2,1.5811866E-2,1.292681E-1,3.466903E-2,5.571816E-2,8.7897226E-2,1.3670948E-2,3.5687353E-2,-5.057056E-3,1.1765075E-2,2.7255494E-2,4.4849437E-2,6.674385E-2,7.530616E-3,3.7621271E-3,5.7850856E-2,8.349551E-2,6.1243474E-2,7.704249E-2,1.20551646E-1,-8.748672E-3,7.93075E-2,7.95462E-2,1.02810994E-1,1.3483366E-1,3.287633E-2,6.110194E-2,-1.8323008E-2,8.599097E-2,1.3841105E-1],"split_indices":[0,0,0,2,5,5,0,0,0,1,0,1,0,1,0,2,5,6,5,0,6,1,5,0,5,5,1,3,6,1,2,6,0,7,7,7,7,6,6,2,1,5,7,2,7,1,7,4,6,6,0,1,1,0,5,5,7,3,6,3,6,1,4,0,0,0,0,0,0,0,0,0,0,0,0,0,0,0,0,0,0,0,0,0,0,0,0,0,0,0,0,0,0,0,0,0,0,0,0,0,0,0,0,0,0,0,0,0,0,0,0,0,0,0,0,0,0,0,0,0,0,0,0,0,0,0,0],"split_type":[0,0,0,0,0,0,0,0,0,0,0,0,0,0,0,0,0,0,0,0,0,0,0,0,0,0,0,0,0,0,0,0,0,0,0,0,0,0,0,0,0,0,0,0,0,0,0,0,0,0,0,0,0,0,0,0,0,0,0,0,0,0,0,0,0,0,0,0,0,0,0,0,0,0,0,0,0,0,0,0,0,0,0,0,0,0,0,0,0,0,0,0,0,0,0,0,0,0,0,0,0,0,0,0,0,0,0,0,0,0,0,0,0,0,0,0,0,0,0,0,0,0,0,0,0,0,0],"sum_hessian":[1.6512E4,1.3059E4,3.453E3,6.25E3,6.809E3,2.382E3,1.071E3,2.62E3,3.63E3,1.462E3,5.347E3,8.53E2,1.529E3,4.5E2,6.21E2,1.429E3,1.191E3,1.714E3,1.916E3,5.67E2,8.95E2,3.217E3,2.13E3,2.63E2,5.9E2,7.62E2,7.67E2,2.77E2,1.73E2,2.57E2,3.64E2,5.09E2,9.2E2,2.22E2,9.69E2,5.85E2,1.129E3,3.26E2,1.59E3,1.93E2,3.74E2,7.33E2,1.62E2,2.823E3,3.94E2,8.87E2,1.243E3,1.47E2,1.16E2,1.06E2,4.84E2,2.69E2,4.93E2,5.83E2,1.84E2,1.15E2,1.62E2,1.32E2,4.1E1,1.51E2,1.06E2,5E0,3.59E2,1.96E2,3.13E2,6.07E2,3.13E2,1.47E2,7.5E1,4E1,9.29E2,7.6E1,5.09E2,8.39E2,2.9E2,2.18E2,1.08E2,5.73E2,1.017E3,1.05E2,8.8E1,2.59E2,1.15E2,2.61E2,4.72E2,1.11E2,5.1E1,1.205E3,1.618E3,1.04E2,2.9E2,7.13E2,1.74E2,3.21E2,9.22E2,9E0,1.38E2,1.01E2,1.5E1,9.8E1,8E0,2.12E2,2.72E2,1E2,1.69E2,1.64E2,3.29E2,3.51E2,2.32E2,1.69E2,1.5E1,4E0,1.11E2,1.03E2,5.9E1,9E0,1.23E2,1E0,4E1,6.1E1,9E1,1.05E2,1E0,2E0,3E0,1.6E1,3.43E2],"tree_param":{"num_deleted":"0","num_feature":"8","num_nodes":"127","size_leaf_vector":"1"}},{"base_weights":[9.308166E-5,-3.251426E-1,1.1747016E0,-6.485628E-1,3.6461256E-2,8.001395E-1,2.050612E0,-1.2140359E-1,-7.4199235E-1,7.593715E-1,-1.6015624E-1,1.4330364E0,5.54581E-1,1.5939003E0,2.378468E0,7.151055E-2,-7.390207E-1,-5.3568333E-1,-9.373798E-1,1.22770585E-1,1.0108881E0,-3.1542358E-1,5.4938488E-2,8.88574E-1,1.6720711E0,3.014645E-1,8.363235E-1,1.2894785E0,2.071115E0,2.1109302E0,2.5610607E0,4.277504E-1,-3.8879782E-1,-6.216242E-1,-1.06132E0,-3.510235E-1,-9.0054214E-1,-6.57652E-1,-1.1135929E0,2.0745778E-1,-3.19649E-1,1.6286799E0,7.296384E-1,-3.8104317E-1,1.4144696E-1,2.780853E-1,-1.576664E-1,5.5547863E-1,1.2289987E0,2.4618242E0,1.4961196E0,5.3965545E-1,1.1662759E-1,6.709211E-1,1.2605176E0,1.6866472E0,1.1971296E0,2.2470326E0,1.4647297E0,1.7871577E0,2.5511403E0,1.0739465E0,2.6085718E0,4.383238E-2,7.383822E-3,-2.9554397E-2,1.4087039E-3,-6.630762E-3,-3.8828954E-2,-5.3779017E-2,-4.072857E-3,-4.068059E-3,-2.9282674E-2,-4.2150486E-2,-6.2186964E-2,-1.15993535E-2,-5.0165366E-2,-4.974961E-2,-6.518307E-2,1.588639E-2,-1.5115372E-2,-3.187723E-2,2.1077357E-3,5.2898854E-2,9.368389E-2,4.2857215E-2,-1.8244594E-2,-1.0827026E-2,-2.5097681E-2,3.7480783E-2,-4.6878825E-3,9.0655945E-3,4.0094007E-2,5.4274094E-3,-1.2168109E-2,-2.1277701E-2,3.1790346E-2,6.771279E-2,1.1437743E-2,5.3441938E-2,1.24942474E-1,5.838404E-2,8.797673E-2,3.1458154E-2,4.348274E-3,-5.3010094E-3,1.1616339E-2,2.6800355E-2,4.370665E-2,6.673368E-2,7.177615E-3,3.3242315E-2,9.054368E-2,2.8942931E-2,6.350303E-2,7.357558E-2,1.1457268E-1,1.5916165E-2,7.723763E-2,9.439676E-2,6.5719895E-2,1.2815557E-1,3.2054424E-2,-3.2692697E-2,7.237666E-2,1.3113068E-1,4.8073055E-3],"categories":[],"categories_nodes":[],"categories_segments":[],"categories_sizes":[],"default_left":[0,0,0,0,0,0,0,0,0,0,0,0,0,0,0,0,0,0,0,0,0,0,0,0,0,0,0,0,0,0,0,0,0,0,0,0,0,0,0,0,0,0,0,0,0,0,0,0,0,0,0,0,0,0,0,0,0,0,0,0,0,0,0,0,0,0,0,0,0,0,0,0,0,0,0,0,0,0,0,0,0,0,0,0,0,0,0,0,0,0,0,0,0,0,0,0,0,0,0,0,0,0,0,0,0,0,0,0,0,0,0,0,0,0,0,0,0,0,0,0,0,0,0,0,0,0,0],"id":1,"left_children":[1,3,5,7,9,11,13,15,17,19,21,23,25,27,29,31,33,35,37,39,41,43,45,47,49,51,53,55,57,59,61,63,65,67,69,71,73,75,77,79,81,83,85,87,89,91,93,95,97,99,101,103,105,107,109,111,113,115,117,119,121,123,125,-1,-1,-1,-1,-1,-1,-1,-1,-1,-1,-1,-1,-1,-1,-1,-1,-1,-1,-1,-1,-1,-1,-1,-1,-1,-1,-1,-1,-1,-1,-1,-1,-1,-1,-1,-1,-1,-1,-1,-1,-1,-1,-1,-1,-1,-1,-1,-1,-1,-1,-1,-1,-1,-1,-1,-1,-1,-1,-1,-1,-1,-1,-1,-1],"loss_changes":[6.308754E3,1.5125378E3,1.1732236E3,3.3615527E2,8.6815106E2,3.8929248E2,1.5672559E2,1.2265518E2,2.3325659E2,2.08987E2,1.6039064E2,8.974609E1,1.2882562E2,6.2848145E1,2.4979004E1,1.2889076E2,8.610291E0,1.8988281E2,1.4600903E2,1.3966674E1,1.6144519E2,8.3667145E1,9.559224E1,2.3810379E1,6.3850586E1,4.198237E1,5.9213562E1,8.177368E0,1.52699585E1,3.221289E1,2.2987549E1,5.5566452E1,2.8948463E1,1.36879425E1,8.066635E-1,1.1864848E2,1.76698E1,1.6941196E2,3.984253E1,1.7634138E1,6.927824E0,3.8845398E1,9.032834E1,4.840323E1,5.0278748E1,4.9682304E1,2.3569912E1,9.017891E0,1.2970703E1,1.8162231E0,3.2551636E1,1.6841782E1,1.3909361E1,1.647464E1,1.9604675E1,5.1427917E0,9.590668E0,1.2098389E0,3.3612976E0,4.760315E0,8.034668E-1,9.337759E0,1.2201416E1,0E0,0E0,0E0,0E0,0E0,0E0,0E0,0E0,0E0,0E0,0E0,0E0,0E0,0E0,0E0,0E0,0E0,0E0,0E0,0E0,0E0,0E0,0E0,0E0,0E0,0E0,0E0,0E0,0E0,0E0,0E0,0E0,0E0,0E0,0E0,0E0,0E0,0E0,0E0,0E0,0E0,0E0,0E0,0E0,0E0,0E0,0E0,0E0,0E0,0E0,0E0,0E0,0E0,0E0,0E0,0E0,0E0,0E0,0E0,0E0,0E0,0E0,0E0,0E0],"parents":[2147483647,0,0,1,1,2,2,3,3,4,4,5,5,6,6,7,7,8,8,9,9,10,10,11,11,12,12,13,13,14,14,15,15,16,16,17,17,18,18,19,19,20,20,21,21,22,22,23,23,24,24,25,25,26,26,27,27,28,28,29,29,30,30,31,31,32,32,33,33,34,34,35,35,36,36,37,37,38,38,39,39,40,40,41,41,42,42,43,43,44,44,45,45,46,46,47,47,48,48,49,49,50,50,51,51,52,52,53,53,54,54,55,55,56,56,57,57,58,58,59,59,60,60,61,61,62,62],"right_children":[2,4,6,8,10,12,14,16,18,20,22,24,26,28,30,32,34,36,38,40,42,44,46,48,50,52,54,56,58,60,62,64,66,68,70,72,74,76,78,80,82,84,86,88,90,92,94,96,98,100,102,104,106,108,110,112,114,116,118,120,122,124,126,-1,-1,-1,-1,-1,-1,-1,-1,-1,-1,-1,-1,-1,-1,-1,-1,-1,-1,-1,-1,-1,-1,-1,-1,-1,-1,-1,-1,-1,-1,-1,-1,-1,-1,-1,-1,-1,-1,-1,-1,-1,-1,-1,-1,-1,-1,-1,-1,-1,-1,-1,-1,-1,-1,-1,-1,-1,-1,-1,-1,-1,-1,-1,-1],"split_conditions":[5.0253E0,3.1875E0,6.828E0,2.1589403E0,2.3513513E0,2.5770235E0,7.8287E0,3.793E1,3.451E1,2E1,4.125E0,2.2E1,5.7214E0,2.7E1,8.7471E0,-1.1824E2,3.889E1,-1.178E2,-1.2162E2,-1.1725E2,1.9598699E0,4.4E1,2.9310346E0,5.6345E0,2.0605633E0,2.9625669E0,2.8E1,-1.2199E2,3.758E1,2.9E1,6.9E1,3.451E1,2.9E1,-1.2226E2,-1.1996E2,3.4362416E0,-1.1667E2,3.792E1,-1.1985E2,3.796E1,3.8594E0,2.9E1,3.8E1,5.1459074E0,-1.2239E2,4.3E1,-1.2145E2,3.16E2,3.796E1,9.3010753E-1,5.5599E0,3.792E1,1.7E1,6.2924E0,3.3522012E0,5.44E2,9.5679015E-1,9.453125E-1,1.68E2,-1.1773E2,3.855E1,3.407E1,3.799E1,4.383238E-2,7.383822E-3,-2.9554397E-2,1.4087039E-3,-6.630762E-3,-3.8828954E-2,-5.3779017E-2,-4.072857E-3,-4.068059E-3,-2.9282674E-2,-4.2150486E-2,-6.2186964E-2,-1.15993535E-2,-5.0165366E-2,-4.974961E-2,-6.518307E-2,1.588639E-2,-1.5115372E-2,-3.187723E-2,2.1077357E-3,5.2898854E-2,9.368389E-2,4.2857215E-2,-1.8244594E-2,-1.0827026E-2,-2.5097681E-2,3.7480783E-2,-4.6878825E-3,9.0655945E-3,4.0094007E-2,5.4274094E-3,-1.2168109E-2,-2.1277701E-2,3.1790346E-2,6.771279E-2,1.1437743E-2,5.3441938E-2,1.24942474E-1,5.838404E-2,8.797673E-2,3.1458154E-2,4.348274E-3,-5.3010094E-3,1.1616339E-2,2.6800355E-2,4.370665E-2,6.673368E-2,7.177615E-3,3.3242315E-2,9.054368E-2,2.8942931E-2,6.350303E-2,7.357558E-2,1.1457268E-1,1.5916165E-2,7.723763E-2,9.439676E-2,6.5719895E-2,1.2815557E-1,3.2054424E-2,-3.2692697E-2,7.237666E-2,1.3113068E-1,4.8073055E-3],"split_indices":[0,0,0,5,5,5,0,6,6,1,0,1,0,1,0,7,6,7,7,7,5,1,5,0,5,5,1,7,6,1,4,6,1,7,7,5,7,6,7,6,0,1,6,2,7,1,7,4,6,3,0,6,1,0,5,4,3,3,4,7,6,6,6,0,0,0,0,0,0,0,0,0,0,0,0,0,0,0,0,0,0,0,0,0,0,0,0,0,0,0,0,0,0,0,0,0,0,0,0,0,0,0,0,0,0,0,0,0,0,0,0,0,0,0,0,0,0,0,0,0,0,0,0,0,0,0,0],"split_type":[0,0,0,0,0,0,0,0,0,0,0,0,0,0,0,0,0,0,0,0,0,0,0,0,0,0,0,0,0,0,0,0,0,0,0,0,0,0,0,0,0,0,0,0,0,0,0,0,0,0,0,0,0,0,0,0,0,0,0,0,0,0,0,0,0,0,0,0,0,0,0,0,0,0,0,0,0,0,0,0,0,0,0,0,0,0,0,0,0,0,0,0,0,0,0,0,0,0,0,0,0,0,0,0,0,0,0,0,0,0,0,0,0,0,0,0,0,0,0,0,0,0,0,0,0,0,0],"sum_hessian":[1.6512E4,1.2932E4,3.58E3,6.826E3,6.106E3,2.509E3,1.071E3,1.028E3,5.798E3,1.305E3,4.801E3,7E2,1.809E3,4.5E2,6.21E2,7.84E2,2.44E2,2.822E3,2.976E3,3.7E2,9.35E2,2.788E3,2.013E3,2.15E2,4.85E2,9.54E2,8.55E2,2.77E2,1.73E2,2.57E2,3.64E2,4.42E2,3.42E2,1.81E2,6.3E1,1.875E3,9.47E2,1.152E3,1.824E3,3.11E2,5.9E1,2.91E2,6.44E2,2.438E3,3.5E2,9.82E2,1.031E3,1.1E2,1.05E2,8.6E1,3.99E2,4.16E2,5.38E2,6.17E2,2.38E2,4.9E1,2.28E2,1.32E2,4.1E1,1.51E2,1.06E2,1.2E1,3.52E2,1.69E2,2.73E2,2.3E2,1.12E2,4.4E1,1.37E2,6.2E1,1E0,8.73E2,1.002E3,8.14E2,1.33E2,5.17E2,6.35E2,1.127E3,6.97E2,2.56E2,5.5E1,3.1E1,2.8E1,8.9E1,2.02E2,5.77E2,6.7E1,1.034E3,1.404E3,9.7E1,2.53E2,8.3E2,1.52E2,2.51E2,7.8E2,8E0,1.02E2,9.3E1,1.2E1,3E0,8.3E1,1.8E2,2.19E2,3.47E2,6.9E1,1.84E2,3.54E2,3.73E2,2.44E2,2.23E2,1.5E1,6E0,4.3E1,2.5E1,2.03E2,9E0,1.23E2,3E0,3.8E1,1.22E2,2.9E1,1.05E2,1E0,2E0,1E1,3.5E2,2E0],"tree_param":{"num_deleted":"0","num_feature":"8","num_nodes":"127","size_leaf_vector":"1"}},{"base_weights":[1.7207736E-4,-3.0192432E-1,1.1424357E0,-6.4573276E-1,1.3706884E-2,7.791171E-1,1.9490082E0,-4.02548E-1,-8.210953E-1,5.9829617E-1,-1.8781464E-1,1.2249329E0,4.547635E-1,1.5153085E0,2.260342E0,-6.2666345E-1,-1.3334696E-1,-1.0059624E0,-6.398086E-1,7.446484E-1,-2.4866825E-1,-3.3541524E-1,3.4848332E-2,6.223239E-1,1.3808597E0,2.0328228E-1,7.092477E-1,1.2257825E0,1.9691758E0,1.9568384E0,2.4102907E0,-2.7952075E-1,-8.1821185E-1,2.5049543E-1,-3.4870696E-1,-8.3170116E-1,-1.0969021E0,-2.4532793E-1,-7.207194E-1,2.7019975E-1,1.0238645E0,1.851112E-1,-4.9019128E-1,-3.7606663E-1,2.2104986E-1,2.3405887E-1,-1.3841046E-1,3.1026104E-1,9.1398823E-1,1.9589489E0,1.1951177E0,3.722013E-1,5.0839346E-2,6.651784E-1,1.8023462E0,1.007382E0,1.3736885E0,2.1360955E0,1.3937112E0,1.5838088E0,2.2486832E0,2.974296E-1,2.4355164E0,-2.8884364E-2,-5.686398E-3,-2.0094562E-2,-4.35645E-2,2.5396073E-2,-7.234422E-3,-8.551439E-3,-2.5712846E-2,-3.2410312E-2,-5.1326472E-2,-5.1497746E-2,-6.4458884E-2,-3.505318E-3,-2.9923333E-2,-2.6736284E-2,-4.149274E-2,2.7262187E-2,-1.6477694E-3,8.079558E-2,3.8837507E-2,4.862125E-2,-3.6270663E-3,-2.6051397E-2,9.19803E-3,-8.483047E-3,-2.3084646E-2,3.5089847E-2,-2.7662402E-3,7.1208747E-3,3.76175E-2,5.9681707E-3,-1.1155474E-2,-2.0858102E-2,1.8003521E-2,5.2815076E-2,7.5822356E-3,1.0210049E-1,2.0329049E-2,4.694218E-2,7.416957E-2,3.4023437E-3,2.2765841E-2,7.455032E-2,1.7436835E-3,4.190897E-2,2.3448743E-2,1.02499425E-1,-3.6091835E-3,2.1083225E-3,5.2073874E-2,9.289246E-2,6.404387E-2,7.026468E-2,1.08890235E-1,-8.927855E-3,7.182071E-2,6.483593E-2,8.787447E-2,4.5408525E-2,1.144225E-1,5.3999014E-2,-1.8192038E-2,1.2275793E-1,5.7448644E-2],"categories":[],"categories_nodes":[],"categories_segments":[],"categories_sizes":[],"default_left":[0,0,0,0,0,0,0,0,0,0,0,0,0,0,0,0,0,0,0,0,0,0,0,0,0,0,0,0,0,0,0,0,0,0,0,0,0,0,0,0,0,0,0,0,0,0,0,0,0,0,0,0,0,0,0,0,0,0,0,0,0,0,0,0,0,0,0,0,0,0,0,0,0,0,0,0,0,0,0,0,0,0,0,0,0,0,0,0,0,0,0,0,0,0,0,0,0,0,0,0,0,0,0,0,0,0,0,0,0,0,0,0,0,0,0,0,0,0,0,0,0,0,0,0,0,0,0],"id":2,"left_children":[1,3,5,7,9,11,13,15,17,19,21,23,25,27,29,31,33,35,37,39,41,43,45,47,49,51,53,55,57,59,61,63,65,67,69,71,73,75,77,79,81,83,85,87,89,91,93,95,97,99,101,103,105,107,109,111,113,115,117,119,121,123,125,-1,-1,-1,-1,-1,-1,-1,-1,-1,-1,-1,-1,-1,-1,-1,-1,-1,-1,-1,-1,-1,-1,-1,-1,-1,-1,-1,-1,-1,-1,-1,-1,-1,-1,-1,-1,-1,-1,-1,-1,-1,-1,-1,-1,-1,-1,-1,-1,-1,-1,-1,-1,-1,-1,-1,-1,-1,-1,-1,-1,-1,-1,-1,-1],"loss_changes":[5.6985474E3,1.4172365E3,1.0106509E3,2.6624658E2,8.023802E2,3.4402954E2,1.4132227E2,1.5804684E2,1.21045654E2,2.166109E2,1.6647386E2,9.3385376E1,8.823706E1,5.6850464E1,2.3590576E1,9.485864E1,9.86232E1,2.7549316E1,5.8424133E1,1.9697668E2,2.7120811E1,6.898697E1,6.9752655E1,1.8648094E1,8.312976E1,1.7903433E1,3.1847168E1,7.5963135E0,1.3736755E1,1.9409485E1,2.1234375E1,2.5145561E1,2.0001648E1,4.3715927E1,2.2384819E1,2.1499603E1,1.3822876E1,1.9387583E1,3.0470825E1,4.6127655E1,1.35831E2,1.8935905E1,3.546753E0,5.0097443E1,2.7675022E1,4.4539967E1,2.3628311E1,3.8459215E0,1.1448418E1,2.3926392E1,4.3302917E1,8.311401E0,8.386525E0,2.2043488E1,1.2217514E1,3.77359E0,4.944824E0,9.9346924E-1,3.0763855E0,2.507782E0,4.1053467E0,3.4978058E0,7.4641113E0,0E0,0E0,0E0,0E0,0E0,0E0,0E0,0E0,0E0,0E0,0E0,0E0,0E0,0E0,0E0,0E0,0E0,0E0,0E0,0E0,0E0,0E0,0E0,0E0,0E0,0E0,0E0,0E0,0E0,0E0,0E0,0E0,0E0,0E0,0E0,0E0,0E0,0E0,0E0,0E0,0E0,0E0,0E0,0E0,0E0,0E0,0E0,0E0,0E0,0E0,0E0,0E0,0E0,0E0,0E0,0E0,0E0,0E0,0E0,0E0,0E0,0E0,0E0,0E0],"parents":[2147483647,0,0,1,1,2,2,3,3,4,4,5,5,6,6,7,7,8,8,9,9,10,10,11,11,12,12,13,13,14,14,15,15,16,16,17,17,18,18,19,19,20,20,21,21,22,22,23,23,24,24,25,25,26,26,27,27,28,28,29,29,30,30,31,31,32,32,33,33,34,34,35,35,36,36,37,37,38,38,39,39,40,40,41,41,42,42,43,43,44,44,45,45,46,46,47,47,48,48,49,49,50,50,51,51,52,52,53,53,54,54,55,55,56,56,57,57,58,58,59,59,60,60,61,61,62,62],"right_children":[2,4,6,8,10,12,14,16,18,20,22,24,26,28,30,32,34,36,38,40,42,44,46,48,50,52,54,56,58,60,62,64,66,68,70,72,74,76,78,80,82,84,86,88,90,92,94,96,98,100,102,104,106,108,110,112,114,116,118,120,122,124,126,-1,-1,-1,-1,-1,-1,-1,-1,-1,-1,-1,-1,-1,-1,-1,-1,-1,-1,-1,-1,-1,-1,-1,-1,-1,-1,-1,-1,-1,-1,-1,-1,-1,-1,-1,-1,-1,-1,-1,-1,-1,-1,-1,-1,-1,-1,-1,-1,-1,-1,-1,-1,-1,-1,-1,-1,-1,-1,-1,-1,-1,-1,-1,-1],"split_conditions":[5.0736E0,3.0714E0,6.828E0,4.314229E0,2.4149444E0,2.7457628E0,7.8287E0,2.2328E0,2.4E0,3.794E1,4.125E0,1.7E1,5.7214E0,2.7E1,2.1E1,3.4459016E0,2.4919918E0,3.529E1,2.2950819E0,2.5E1,-1.2236E2,4.8E1,2.9310346E0,5.6345E0,2.2600896E0,3.125E0,4.1E1,1.01002E0,3.758E1,8.7471E0,4.805646E0,1.0289257E0,2.1026785E0,-1.1831E2,3.4661016E0,-1.1734E2,-1.1985E2,3.792E1,3.468E1,-1.1829E2,1.9598699E0,3.801E1,1.8793522E1,4.828877E0,-1.2236E2,4.3E1,-1.2145E2,3.16E2,3.792E1,3.794E1,5.826E0,9.7402596E-1,1.68E2,3.1413794E0,3.3087718E0,2.0858505E0,2.4919918E0,9.453125E-1,3.766E1,1.0094192E0,8.5714287E-1,9.281E0,3.799E1,-2.8884364E-2,-5.686398E-3,-2.0094562E-2,-4.35645E-2,2.5396073E-2,-7.234422E-3,-8.551439E-3,-2.5712846E-2,-3.2410312E-2,-5.1326472E-2,-5.1497746E-2,-6.4458884E-2,-3.505318E-3,-2.9923333E-2,-2.6736284E-2,-4.149274E-2,2.7262187E-2,-1.6477694E-3,8.079558E-2,3.8837507E-2,4.862125E-2,-3.6270663E-3,-2.6051397E-2,9.19803E-3,-8.483047E-3,-2.3084646E-2,3.5089847E-2,-2.7662402E-3,7.1208747E-3,3.76175E-2,5.9681707E-3,-1.1155474E-2,-2.0858102E-2,1.8003521E-2,5.2815076E-2,7.5822356E-3,1.0210049E-1,2.0329049E-2,4.694218E-2,7.416957E-2,3.4023437E-3,2.2765841E-2,7.455032E-2,1.7436835E-3,4.190897E-2,2.3448743E-2,1.02499425E-1,-3.6091835E-3,2.1083225E-3,5.2073874E-2,9.289246E-2,6.404387E-2,7.026468E-2,1.08890235E-1,-8.927855E-3,7.182071E-2,6.483593E-2,8.787447E-2,4.5408525E-2,1.144225E-1,5.3999014E-2,-1.8192038E-2,1.2275793E-1,5.7448644E-2],"split_indices":[0,0,0,2,5,5,0,0,0,6,0,1,0,1,1,2,5,6,5,1,7,1,5,0,5,5,1,3,6,0,2,3,5,7,5,7,7,6,6,7,5,6,2,2,7,1,7,4,6,6,0,3,4,5,5,5,5,3,6,3,3,0,6,0,0,0,0,0,0,0,0,0,0,0,0,0,0,0,0,0,0,0,0,0,0,0,0,0,0,0,0,0,0,0,0,0,0,0,0,0,0,0,0,0,0,0,0,0,0,0,0,0,0,0,0,0,0,0,0,0,0,0,0,0,0,0,0],"split_type":[0,0,0,0,0,0,0,0,0,0,0,0,0,0,0,0,0,0,0,0,0,0,0,0,0,0,0,0,0,0,0,0,0,0,0,0,0,0,0,0,0,0,0,0,0,0,0,0,0,0,0,0,0,0,0,0,0,0,0,0,0,0,0,0,0,0,0,0,0,0,0,0,0,0,0,0,0,0,0,0,0,0,0,0,0,0,0,0,0,0,0,0,0,0,0,0,0,0,0,0,0,0,0,0,0,0,0,0,0,0,0,0,0,0,0,0,0,0,0,0,0,0,0,0,0,0,0],"sum_hessian":[1.6512E4,1.3059E4,3.453E3,6.25E3,6.809E3,2.382E3,1.071E3,2.62E3,3.63E3,1.745E3,5.064E3,1.002E3,1.38E3,4.5E2,6.21E2,1.429E3,1.191E3,1.795E3,1.835E3,1.488E3,2.57E2,3.045E3,2.019E3,2.07E2,7.95E2,6.95E2,6.85E2,2.77E2,1.73E2,2.1E2,4.11E2,5.09E2,9.2E2,4.28E2,7.63E2,6.19E2,1.176E3,3.13E2,1.522E3,5.52E2,9.36E2,9.2E1,1.65E2,2.838E3,2.07E2,9.39E2,1.08E3,1.01E2,1.06E2,1.91E2,6.04E2,3.29E2,3.66E2,6.6E2,2.5E1,1.15E2,1.62E2,1.32E2,4.1E1,9.5E1,1.15E2,5E0,4.06E2,1.81E2,3.28E2,1.05E2,8.15E2,2.59E2,1.69E2,3.69E2,3.94E2,3.21E2,2.98E2,8.77E2,2.99E2,2.1E2,1.03E2,5.65E2,9.57E2,2.89E2,2.63E2,2.74E2,6.62E2,2.2E1,7E1,1.58E2,7E0,8.33E2,2.005E3,7.5E1,1.32E2,7.99E2,1.4E2,2.67E2,8.13E2,6E0,9.5E1,8.9E1,1.7E1,1.81E2,1E1,3.22E2,2.82E2,7.1E1,2.58E2,3E0,3.63E2,3.49E2,3.11E2,2.2E1,3E0,4E0,1.11E2,2.3E1,1.39E2,9E0,1.23E2,1E0,4E1,3.9E1,5.6E1,4E0,1.11E2,2E0,3E0,3.99E2,7E0],"tree_param":{"num_deleted":"0","num_feature":"8","num_nodes":"127","size_leaf_vector":"1"}},{"base_weights":[2.450575E-4,-2.9356787E-1,1.0613683E0,-5.86534E-1,3.3986356E-2,6.7839587E-1,1.7619894E0,-1.0610375E-1,-6.7168254E-1,7.423312E-1,-1.3190688E-1,1.095015E0,3.716606E-1,1.3862609E0,2.1481745E0,7.082246E-2,-6.725567E-1,-4.8307282E-1,-8.503099E-1,1.1632413E-1,1.0009898E0,-2.8572127E-1,4.945177E-2,6.286068E-1,1.2801514E0,1.8845831E-1,6.1903894E-1,1.1056656E0,1.8508842E0,1.9024557E0,2.3159754E0,4.0047213E-1,-3.551415E-1,-5.650765E-1,-9.6769476E-1,-3.1088844E-1,-8.232994E-1,-5.8974457E-1,-1.0144641E0,1.9894579E-1,-3.0623838E-1,1.1705707E0,1.1623262E-1,-3.4344062E-1,1.0952962E-1,3.1525558E-1,-1.0846217E-1,4.007862E-1,8.7202173E-1,2.0432305E0,1.1271746E0,-3.7857704E-2,2.9371348E-1,5.8040226E-1,1.6486627E0,1.469664E0,1.012664E0,1.9819236E0,1.3486702E0,1.6067872E0,2.3046906E0,9.432862E-1,2.359967E0,4.1035336E-2,6.914054E-3,-2.7226185E-2,1.7572774E-3,-5.2727466E-3,-3.5542917E-2,-4.9050435E-2,-3.2229484E-3,-3.0661235E-3,-2.6402337E-2,-3.875662E-2,-5.9159882E-2,-1.5881903E-2,-5.3017117E-2,-4.5219775E-2,-5.9544344E-2,1.55881345E-2,-1.6239883E-2,-3.0544568E-2,2.180352E-3,7.815554E-2,4.550763E-2,2.0337535E-2,-2.403253E-2,-9.245272E-3,-2.3368528E-2,3.2770127E-2,-4.8491377E-3,4.351005E-2,1.13001345E-2,2.2855897E-2,-7.504312E-3,-1.9219555E-2,2.335598E-2,5.798161E-2,2.7222348E-2,1.08041905E-1,2.9025225E-2,4.4051543E-2,6.881109E-2,-1.0992627E-2,4.5659104E-3,2.1057827E-2,5.6154523E-3,3.6612008E-2,2.0378178E-2,9.483152E-2,-1.9434866E-2,1.4437067E-2,7.9843365E-2,6.961127E-2,4.7254693E-2,1.11511804E-1,8.875195E-2,7.0490494E-2,-7.013005E-3,8.891075E-2,6.7499034E-2,1.1617919E-1,4.3760207E-2,-3.3345703E-2,6.4833924E-2,1.1863486E-1,4.193457E-3],"categories":[],"categories_nodes":[],"categories_segments":[],"categories_sizes":[],"default_left":[0,0,0,0,0,0,0,0,0,0,0,0,0,0,0,0,0,0,0,0,0,0,0,0,0,0,0,0,0,0,0,0,0,0,0,0,0,0,0,0,0,0,0,0,0,0,0,0,0,0,0,0,0,0,0,0,0,0,0,0,0,0,0,0,0,0,0,0,0,0,0,0,0,0,0,0,0,0,0,0,0,0,0,0,0,0,0,0,0,0,0,0,0,0,0,0,0,0,0,0,0,0,0,0,0,0,0,0,0,0,0,0,0,0,0,0,0,0,0,0,0,0,0,0,0,0,0],"id":3,"left_children":[1,3,5,7,9,11,13,15,17,19,21,23,25,27,29,31,33,35,37,39,41,43,45,47,49,51,53,55,57,59,61,63,65,67,69,71,73,75,77,79,81,83,85,87,89,91,93,95,97,99,101,103,105,107,109,111,113,115,117,119,121,123,125,-1,-1,-1,-1,-1,-1,-1,-1,-1,-1,-1,-1,-1,-1,-1,-1,-1,-1,-1,-1,-1,-1,-1,-1,-1,-1,-1,-1,-1,-1,-1,-1,-1,-1,-1,-1,-1,-1,-1,-1,-1,-1,-1,-1,-1,-1,-1,-1,-1,-1,-1,-1,-1,-1,-1,-1,-1,-1,-1,-1,-1,-1,-1,-1],"loss_changes":[5.148598E3,1.2411003E3,9.596531E2,2.7920728E2,7.177291E2,2.9568665E2,1.8057495E2,1.03174385E2,1.949624E2,1.8755133E2,1.380693E2,8.399011E1,6.0431213E1,8.19126E1,2.123999E1,1.1037105E2,7.224945E0,1.6512012E2,1.2673682E2,1.1931282E1,1.2289502E2,6.1132492E1,9.5399414E1,1.5233353E1,7.964368E1,1.8329412E1,2.163884E1,1.218811E1,1.3187134E1,2.6980286E1,1.9815063E1,4.8697037E1,2.5371445E1,1.2119854E1,7.064018E-1,1.0163803E2,1.5516663E1,1.4730792E2,3.436194E1,1.694109E1,5.9952E0,6.89079E1,2.3258419E1,4.5829224E1,3.8617054E1,4.1755653E1,3.3639133E1,7.835829E0,1.2087509E1,1.8700867E1,3.4771423E1,5.779867E0,1.2090038E1,1.4109207E1,1.0841206E1,1.1556305E1,7.0195007E0,5.7506104E0,5.022476E0,4.291046E0,8.562012E-1,8.262194E0,1.0029297E1,0E0,0E0,0E0,0E0,0E0,0E0,0E0,0E0,0E0,0E0,0E0,0E0,0E0,0E0,0E0,0E0,0E0,0E0,0E0,0E0,0E0,0E0,0E0,0E0,0E0,0E0,0E0,0E0,0E0,0E0,0E0,0E0,0E0,0E0,0E0,0E0,0E0,0E0,0E0,0E0,0E0,0E0,0E0,0E0,0E0,0E0,0E0,0E0,0E0,0E0,0E0,0E0,0E0,0E0,0E0,0E0,0E0,0E0,0E0,0E0,0E0,0E0,0E0,0E0],"parents":[2147483647,0,0,1,1,2,2,3,3,4,4,5,5,6,6,7,7,8,8,9,9,10,10,11,11,12,12,13,13,14,14,15,15,16,16,17,17,18,18,19,19,20,20,21,21,22,22,23,23,24,24,25,25,26,26,27,27,28,28,29,29,30,30,31,31,32,32,33,33,34,34,35,35,36,36,37,37,38,38,39,39,40,40,41,41,42,42,43,43,44,44,45,45,46,46,47,47,48,48,49,49,50,50,51,51,52,52,53,53,54,54,55,55,56,56,57,57,58,58,59,59,60,60,61,61,62,62],"right_children":[2,4,6,8,10,12,14,16,18,20,22,24,26,28,30,32,34,36,38,40,42,44,46,48,50,52,54,56,58,60,62,64,66,68,70,72,74,76,78,80,82,84,86,88,90,92,94,96,98,100,102,104,106,108,110,112,114,116,118,120,122,124,126,-1,-1,-1,-1,-1,-1,-1,-1,-1,-1,-1,-1,-1,-1,-1,-1,-1,-1,-1,-1,-1,-1,-1,-1,-1,-1,-1,-1,-1,-1,-1,-1,-1,-1,-1,-1,-1,-1,-1,-1,-1,-1,-1,-1,-1,-1,-1,-1,-1,-1,-1,-1,-1,-1,-1,-1,-1,-1,-1,-1,-1,-1,-1,-1],"split_conditions":[5.0253E0,3.1875E0,6.5891E0,2.1589403E0,2.3019416E0,2.7457628E0,7.8287E0,3.793E1,3.451E1,2E1,4.0556E0,2.1E1,5.7214E0,2.7E1,8.7471E0,-1.1824E2,3.889E1,-1.178E2,-1.2162E2,-1.1725E2,3.782E1,4.4E1,2.7748537E0,5.6345E0,2.1589403E0,1.7E1,4.1E1,2.6575E0,3.758E1,2.9E1,6.9E1,3.451E1,2.9E1,-1.2226E2,-1.1996E2,3.4362416E0,-1.1643E2,3.868E1,-1.1985E2,3.796E1,3.8594E0,1.9598699E0,-1.2203E2,5.1459074E0,-1.2239E2,-1.2227E2,-1.2236E2,3.16E2,2.516854E0,3.79E1,5.5942E0,1.0193704E0,3.1802325E0,3.1413794E0,1.2151898E0,9.5679015E-1,-1.2199E2,2.5895522E0,-1.2135E2,-1.1806E2,3.2425876E0,3.407E1,3.799E1,4.1035336E-2,6.914054E-3,-2.7226185E-2,1.7572774E-3,-5.2727466E-3,-3.5542917E-2,-4.9050435E-2,-3.2229484E-3,-3.0661235E-3,-2.6402337E-2,-3.875662E-2,-5.9159882E-2,-1.5881903E-2,-5.3017117E-2,-4.5219775E-2,-5.9544344E-2,1.55881345E-2,-1.6239883E-2,-3.0544568E-2,2.180352E-3,7.815554E-2,4.550763E-2,2.0337535E-2,-2.403253E-2,-9.245272E-3,-2.3368528E-2,3.2770127E-2,-4.8491377E-3,4.351005E-2,1.13001345E-2,2.2855897E-2,-7.504312E-3,-1.9219555E-2,2.335598E-2,5.798161E-2,2.7222348E-2,1.08041905E-1,2.9025225E-2,4.4051543E-2,6.881109E-2,-1.0992627E-2,4.5659104E-3,2.1057827E-2,5.6154523E-3,3.6612008E-2,2.0378178E-2,9.483152E-2,-1.9434866E-2,1.4437067E-2,7.9843365E-2,6.961127E-2,4.7254693E-2,1.11511804E-1,8.875195E-2,7.0490494E-2,-7.013005E-3,8.891075E-2,6.7499034E-2,1.1617919E-1,4.3760207E-2,-3.3345703E-2,6.4833924E-2,1.1863486E-1,4.193457E-3],"split_indices":[0,0,0,5,5,5,0,6,6,1,0,1,0,1,0,7,6,7,7,7,6,1,5,0,5,1,1,5,6,1,4,6,1,7,7,5,7,6,7,6,0,5,7,2,7,7,7,4,5,6,0,3,5,5,3,3,7,5,7,7,5,6,6,0,0,0,0,0,0,0,0,0,0,0,0,0,0,0,0,0,0,0,0,0,0,0,0,0,0,0,0,0,0,0,0,0,0,0,0,0,0,0,0,0,0,0,0,0,0,0,0,0,0,0,0,0,0,0,0,0,0,0,0,0,0,0,0],"split_type":[0,0,0,0,0,0,0,0,0,0,0,0,0,0,0,0,0,0,0,0,0,0,0,0,0,0,0,0,0,0,0,0,0,0,0,0,0,0,0,0,0,0,0,0,0,0,0,0,0,0,0,0,0,0,0,0,0,0,0,0,0,0,0,0,0,0,0,0,0,0,0,0,0,0,0,0,0,0,0,0,0,0,0,0,0,0,0,0,0,0,0,0,0,0,0,0,0,0,0,0,0,0,0,0,0,0,0,0,0,0,0,0,0,0,0,0,0,0,0,0,0,0,0,0,0,0,0],"sum_hessian":[1.6512E4,1.2932E4,3.58E3,6.826E3,6.106E3,2.316E3,1.264E3,1.028E3,5.798E3,1.158E3,4.948E3,9.81E2,1.335E3,6.43E2,6.21E2,7.84E2,2.44E2,2.822E3,2.976E3,3.39E2,8.19E2,2.677E3,2.271E3,2.8E2,7.01E2,7.68E2,5.67E2,4.03E2,2.4E2,2.57E2,3.64E2,4.42E2,3.42E2,1.81E2,6.3E1,1.875E3,9.47E2,1.152E3,1.824E3,2.84E2,5.5E1,6.87E2,1.32E2,2.336E3,3.41E2,8.46E2,1.425E3,1.46E2,1.34E2,1.15E2,5.86E2,2.44E2,5.24E2,5.48E2,1.9E1,7.9E1,3.24E2,1.88E2,5.2E1,1.51E2,1.06E2,1.2E1,3.52E2,1.69E2,2.73E2,2.3E2,1.12E2,4.4E1,1.37E2,6.2E1,1E0,8.73E2,1.002E3,8.38E2,1.09E2,7.31E2,4.21E2,1.127E3,6.97E2,2.34E2,5E1,2.9E1,2.6E1,2.72E2,4.15E2,8.9E1,4.3E1,1.026E3,1.31E3,9.3E1,2.48E2,1.16E2,7.3E2,9.7E1,1.328E3,1.1E1,1.35E2,7E1,6.4E1,1.06E2,9E0,2.97E2,2.89E2,1.01E2,1.43E2,3.07E2,2.17E2,2.9E2,2.58E2,1.7E1,2E0,8E0,7.1E1,4.6E1,2.78E2,8.1E1,1.07E2,5E1,2E0,8.7E1,6.4E1,1.04E2,2E0,2E0,1E1,3.5E2,2E0],"tree_param":{"num_deleted":"0","num_feature":"8","num_nodes":"127","size_leaf_vector":"1"}},{"base_weights":[3.0679512E-4,-2.6617533E-1,1.0577374E0,-5.5726177E-1,4.6130344E-2,7.2234005E-1,1.761648E0,-1.00867204E-1,-6.3815033E-1,6.302658E-1,-1.358723E-1,1.2028763E0,4.7004932E-1,1.371751E0,2.0415225E0,6.730993E-2,-6.3930875E-1,-4.5896432E-1,-8.0785275E-1,1.1017179E-1,8.3152217E-1,-2.828354E-1,4.7180675E-2,7.4151605E-1,1.4059718E0,2.7512226E-1,6.9682354E-1,1.1104048E0,1.7814204E0,1.7616097E0,2.1799207E0,3.8492098E-1,-3.326353E-1,-5.3704685E-1,-9.201268E-1,-2.9535973E-1,-7.8223777E-1,-5.603171E-1,-9.6379834E-1,-9.318979E-2,2.6863852E-1,1.006101E0,2.003398E-2,-3.3460748E-1,1.3896896E-1,2.3711157E-1,-1.2520564E-1,4.3889934E-1,9.9187243E-1,1.9750922E0,1.2356865E0,5.0553566E-1,1.4161272E-1,5.719161E-1,1.0793405E0,1.471464E0,1.026722E0,1.9331412E0,1.2585561E0,1.4970863E0,2.114329E0,2.4798806E-1,2.2030454E0,4.017998E-2,6.56961E-3,-2.551185E-2,1.581895E-3,-5.0149653E-3,-3.377865E-2,-4.6636842E-2,-3.1423748E-3,7.591695E-4,-2.27895E-2,-3.1627852E-2,-4.4493496E-2,-8.935282E-3,-4.351227E-2,-4.296079E-2,-5.6571394E-2,6.071545E-4,-3.1012295E-2,7.284174E-3,3.1151071E-2,7.53448E-2,3.876038E-2,1.4254008E-2,-2.5518332E-2,-1.0978746E-2,-2.3405641E-2,3.2464832E-2,-3.8803506E-3,7.7234297E-3,3.5283547E-2,5.5480544E-3,-1.0212182E-2,-1.5786046E-2,2.587593E-2,5.4521885E-2,1.5899885E-2,1.0579337E-1,5.502906E-2,4.8311736E-2,7.4770235E-2,1.22536635E-2,3.220365E-2,-4.9663447E-3,1.1004175E-2,2.1591391E-2,3.6909226E-2,7.5077906E-4,5.7351816E-2,2.6473438E-2,7.9394236E-2,2.3379846E-2,5.4647505E-2,8.31966E-2,1.0327947E-1,1.1960789E-2,6.6541664E-2,4.510313E-2,7.915961E-2,4.052921E-2,1.0833812E-1,-1.0752683E-2,6.407992E-2,6.3717395E-2,1.1140163E-1],"categories":[],"categories_nodes":[],"categories_segments":[],"categories_sizes":[],"default_left":[0,0,0,0,0,0,0,0,0,0,0,0,0,0,0,0,0,0,0,0,0,0,0,0,0,0,0,0,0,0,0,0,0,0,0,0,0,0,0,0,0,0,0,0,0,0,0,0,0,0,0,0,0,0,0,0,0,0,0,0,0,0,0,0,0,0,0,0,0,0,0,0,0,0,0,0,0,0,0,0,0,0,0,0,0,0,0,0,0,0,0,0,0,0,0,0,0,0,0,0,0,0,0,0,0,0,0,0,0,0,0,0,0,0,0,0,0,0,0,0,0,0,0,0,0,0,0],"id":4,"left_children":[1,3,5,7,9,11,13,15,17,19,21,23,25,27,29,31,33,35,37,39,41,43,45,47,49,51,53,55,57,59,61,63,65,67,69,71,73,75,77,79,81,83,85,87,89,91,93,95,97,99,101,103,105,107,109,111,113,115,117,119,121,123,125,-1,-1,-1,-1,-1,-1,-1,-1,-1,-1,-1,-1,-1,-1,-1,-1,-1,-1,-1,-1,-1,-1,-1,-1,-1,-1,-1,-1,-1,-1,-1,-1,-1,-1,-1,-1,-1,-1,-1,-1,-1,-1,-1,-1,-1,-1,-1,-1,-1,-1,-1,-1,-1,-1,-1,-1,-1,-1,-1,-1,-1,-1,-1,-1],"loss_changes":[4.6534194E3,1.1991016E3,7.8348975E2,2.5196875E2,6.766691E2,2.7257678E2,1.1417847E2,9.322263E1,1.7596704E2,1.5817279E2,1.3056891E2,7.157507E1,6.5186646E1,4.630847E1,2.025586E1,9.984425E1,6.5415115E0,1.4907465E2,1.14378296E2,1.3656651E1,1.5439868E2,5.8833557E1,7.081678E1,1.7671799E1,4.9601562E1,2.4446033E1,3.20159E1,6.8888855E0,1.1370361E1,1.6521484E1,1.7859863E1,4.6386826E1,2.2530182E1,1.0943409E1,6.3323975E-1,9.3470215E1,1.4709778E1,1.3621231E2,3.1022095E1,1.033357E1,1.0279646E1,1.02552185E2,2.7418142E1,3.6724426E1,3.2655178E1,3.97371E1,2.1190077E1,6.689436E0,8.287918E0,1.2690643E1,2.7667358E1,1.0378609E1,9.588661E0,1.1723328E1,1.20151825E1,4.6426315E0,7.96875E0,1.3052368E0,2.7759933E0,4.9250183E0,4.259308E0,3.1472404E0,6.6054688E0,0E0,0E0,0E0,0E0,0E0,0E0,0E0,0E0,0E0,0E0,0E0,0E0,0E0,0E0,0E0,0E0,0E0,0E0,0E0,0E0,0E0,0E0,0E0,0E0,0E0,0E0,0E0,0E0,0E0,0E0,0E0,0E0,0E0,0E0,0E0,0E0,0E0,0E0,0E0,0E0,0E0,0E0,0E0,0E0,0E0,0E0,0E0,0E0,0E0,0E0,0E0,0E0,0E0,0E0,0E0,0E0,0E0,0E0,0E0,0E0,0E0,0E0,0E0,0E0],"parents":[2147483647,0,0,1,1,2,2,3,3,4,4,5,5,6,6,7,7,8,8,9,9,10,10,11,11,12,12,13,13,14,14,15,15,16,16,17,17,18,18,19,19,20,20,21,21,22,22,23,23,24,24,25,25,26,26,27,27,28,28,29,29,30,30,31,31,32,32,33,33,34,34,35,35,36,36,37,37,38,38,39,39,40,40,41,41,42,42,43,43,44,44,45,45,46,46,47,47,48,48,49,49,50,50,51,51,52,52,53,53,54,54,55,55,56,56,57,57,58,58,59,59,60,60,61,61,62,62],"right_children":[2,4,6,8,10,12,14,16,18,20,22,24,26,28,30,32,34,36,38,40,42,44,46,48,50,52,54,56,58,60,62,64,66,68,70,72,74,76,78,80,82,84,86,88,90,92,94,96,98,100,102,104,106,108,110,112,114,116,118,120,122,124,126,-1,-1,-1,-1,-1,-1,-1,-1,-1,-1,-1,-1,-1,-1,-1,-1,-1,-1,-1,-1,-1,-1,-1,-1,-1,-1,-1,-1,-1,-1,-1,-1,-1,-1,-1,-1,-1,-1,-1,-1,-1,-1,-1,-1,-1,-1,-1,-1,-1,-1,-1,-1,-1,-1,-1,-1,-1,-1,-1,-1,-1,-1,-1,-1],"split_conditions":[5.1228E0,3.1875E0,6.828E0,2.1589403E0,2.395105E0,2.6575E0,7.8287E0,3.793E1,3.451E1,2E1,4.125E0,2.2E1,5.826E0,2.7E1,2.1E1,-1.1825E2,3.889E1,-1.178E2,-1.2162E2,3.8E0,3.782E1,4.5E1,2.9310346E0,5.6345E0,2.2105262E0,2.9625669E0,2.8E1,-1.2199E2,3.758E1,9.281E0,4.805646E0,3.451E1,2.9E1,-1.2226E2,-1.1996E2,3.1328905E0,2.9022555E0,3.792E1,-1.1985E2,-1.1723E2,1.7E1,1.9598699E0,3.851E1,3.443E1,-1.2239E2,4.3E1,-1.2145E2,3.54E2,3.796E1,3.781E1,5.7214E0,2.1E1,1.6E1,6.2924E0,5.4822483E0,5.44E2,9.5679015E-1,1.0142857E0,1.68E2,9.683908E-1,8.5714287E-1,8.917526E-1,1.38E2,4.017998E-2,6.56961E-3,-2.551185E-2,1.581895E-3,-5.0149653E-3,-3.377865E-2,-4.6636842E-2,-3.1423748E-3,7.591695E-4,-2.27895E-2,-3.1627852E-2,-4.4493496E-2,-8.935282E-3,-4.351227E-2,-4.296079E-2,-5.6571394E-2,6.071545E-4,-3.1012295E-2,7.284174E-3,3.1151071E-2,7.53448E-2,3.876038E-2,1.4254008E-2,-2.5518332E-2,-1.0978746E-2,-2.3405641E-2,3.2464832E-2,-3.8803506E-3,7.7234297E-3,3.5283547E-2,5.5480544E-3,-1.0212182E-2,-1.5786046E-2,2.587593E-2,5.4521885E-2,1.5899885E-2,1.0579337E-1,5.502906E-2,4.8311736E-2,7.4770235E-2,1.22536635E-2,3.220365E-2,-4.9663447E-3,1.1004175E-2,2.1591391E-2,3.6909226E-2,7.5077906E-4,5.7351816E-2,2.6473438E-2,7.9394236E-2,2.3379846E-2,5.4647505E-2,8.31966E-2,1.0327947E-1,1.1960789E-2,6.6541664E-2,4.510313E-2,7.915961E-2,4.052921E-2,1.0833812E-1,-1.0752683E-2,6.407992E-2,6.3717395E-2,1.1140163E-1],"split_indices":[0,0,0,5,5,5,0,6,6,1,0,1,0,1,1,7,6,7,7,0,6,1,5,0,5,5,1,7,6,0,2,6,1,7,7,5,5,6,7,7,1,5,6,6,7,1,7,4,6,6,0,1,1,0,2,4,3,3,4,3,3,3,4,0,0,0,0,0,0,0,0,0,0,0,0,0,0,0,0,0,0,0,0,0,0,0,0,0,0,0,0,0,0,0,0,0,0,0,0,0,0,0,0,0,0,0,0,0,0,0,0,0,0,0,0,0,0,0,0,0,0,0,0,0,0,0,0],"split_type":[0,0,0,0,0,0,0,0,0,0,0,0,0,0,0,0,0,0,0,0,0,0,0,0,0,0,0,0,0,0,0,0,0,0,0,0,0,0,0,0,0,0,0,0,0,0,0,0,0,0,0,0,0,0,0,0,0,0,0,0,0,0,0,0,0,0,0,0,0,0,0,0,0,0,0,0,0,0,0,0,0,0,0,0,0,0,0,0,0,0,0,0,0,0,0,0,0,0,0,0,0,0,0,0,0,0,0,0,0,0,0,0,0,0,0,0,0,0,0,0,0,0,0,0,0,0,0],"sum_hessian":[1.6512E4,1.3189E4,3.323E3,6.826E3,6.363E3,2.252E3,1.071E3,1.028E3,5.798E3,1.511E3,4.852E3,7.74E2,1.478E3,4.5E2,6.21E2,7.84E2,2.44E2,2.822E3,2.976E3,4.22E2,1.089E3,2.691E3,2.161E3,2.38E2,5.36E2,7.96E2,6.82E2,2.77E2,1.73E2,2.1E2,4.11E2,4.37E2,3.47E2,1.81E2,6.3E1,1.875E3,9.47E2,1.152E3,1.824E3,1.85E2,2.37E2,8.96E2,1.93E2,2.397E3,2.94E2,1.028E3,1.133E3,1.09E2,1.29E2,1.21E2,4.15E2,2.91E2,5.05E2,5.16E2,1.66E2,4.9E1,2.28E2,1.32E2,4.1E1,1.23E2,8.7E1,5E0,4.06E2,1.64E2,2.73E2,2.33E2,1.14E2,4.4E1,1.37E2,6.2E1,1E0,6.39E2,1.236E3,3.99E2,5.48E2,5.17E2,6.35E2,1.127E3,6.97E2,1.55E2,3E1,1.77E2,6E1,2.81E2,6.15E2,1.29E2,6.4E1,1.289E3,1.108E3,8.7E1,2.07E2,8.75E2,1.53E2,2.84E2,8.49E2,1E1,9.9E1,1.12E2,1.7E1,1.03E2,1.8E1,2.06E2,2.09E2,1.02E2,1.89E2,1.24E2,3.81E2,2.82E2,2.34E2,1E1,1.56E2,6E0,4.3E1,2.5E1,2.03E2,4.8E1,8.4E1,3E0,3.8E1,1.7E1,1.06E2,4E0,8.3E1,4E0,1E0,1.2E1,3.94E2],"tree_param":{"num_deleted":"0","num_feature":"8","num_nodes":"127","size_leaf_vector":"1"}},{"base_weights":[3.70749E-4,-2.651625E-1,9.593602E-1,-6.0503876E-1,-3.0293722E-2,6.1301386E-1,1.5929768E0,-2.9491448E-1,-7.242338E-1,4.5257872E-1,-2.0121667E-1,1.135031E0,4.1052547E-1,1.2550906E0,1.9402529E0,-6.853912E-2,-4.9533868E-1,-8.8423663E-1,-5.70427E-1,5.744069E-1,-3.507098E-1,-3.5724083E-1,-2.915535E-2,6.6646934E-1,1.3416768E0,2.429211E-1,6.3319165E-1,1.000549E0,1.6765833E0,2.0441396E0,1.5906587E0,1.4415701E-2,-7.710117E-1,-4.507815E-1,-9.2008656E-1,-6.294256E-1,-9.333313E-1,-2.244321E-1,-6.549044E-1,1.4383243E0,4.5786554E-1,-6.515343E-2,-4.931178E-1,-1.7809086E-1,-4.6981338E-1,-8.4137194E-2,4.2228517E-1,-1.9842252E-1,7.376683E-1,2.0197623E0,1.1887784E0,4.132621E-1,7.3493525E-2,5.153818E-1,1.0570221E0,1.3411125E0,9.136393E-1,1.7958726E0,1.2195596E0,2.7438027E-1,2.0661485E0,1.3014566E0,1.9556035E0,1.2255315E-2,-1.9817013E-2,-3.2639556E-2,-4.9981542E-2,-1.9455627E-2,-3.6879353E-2,-4.656378E-2,-2.8619498E-3,-2.6264388E-2,-4.7370303E-2,-4.042177E-2,-5.093223E-2,-2.3028364E-2,1.4706886E-3,-2.391745E-2,-3.8772535E-2,3.7101873E-3,7.725329E-2,3.0427668E-2,3.1325908E-3,5.9057623E-3,-3.321097E-2,-2.6129425E-2,9.554493E-3,1.3297433E-3,-1.5223347E-2,-2.5958627E-2,7.5838465E-4,1.992294E-3,-1.1055435E-2,2.9904751E-2,7.1264314E-3,-4.3638047E-2,-1.9874198E-3,2.7343947E-2,5.252449E-2,3.959026E-2,1.02841996E-1,6.2184304E-2,-9.0308505E-4,2.457819E-2,3.710273E-4,-5.8115087E-3,8.991025E-3,3.1298265E-2,1.8197337E-2,5.690459E-2,-1.9494096E-4,1.8589897E-2,7.371373E-2,6.316635E-2,4.2572837E-2,1.0140647E-1,8.014506E-2,6.3836E-2,-7.9344455E-3,4.1560907E-2,-1.7552633E-2,1.0442227E-1,4.7295038E-2,5.732978E-2,8.59407E-2,-3.2042556E-2,1.0256195E-1],"categories":[],"categories_nodes":[],"categories_segments":[],"categories_sizes":[],"default_left":[0,0,0,0,0,0,0,0,0,0,0,0,0,0,0,0,0,0,0,0,0,0,0,0,0,0,0,0,0,0,0,0,0,0,0,0,0,0,0,0,0,0,0,0,0,0,0,0,0,0,0,0,0,0,0,0,0,0,0,0,0,0,0,0,0,0,0,0,0,0,0,0,0,0,0,0,0,0,0,0,0,0,0,0,0,0,0,0,0,0,0,0,0,0,0,0,0,0,0,0,0,0,0,0,0,0,0,0,0,0,0,0,0,0,0,0,0,0,0,0,0,0,0,0,0,0,0],"id":5,"left_children":[1,3,5,7,9,11,13,15,17,19,21,23,25,27,29,31,33,35,37,39,41,43,45,47,49,51,53,55,57,59,61,63,65,67,69,71,73,75,77,79,81,83,85,87,89,91,93,95,97,99,101,103,105,107,109,111,113,115,117,119,121,123,125,-1,-1,-1,-1,-1,-1,-1,-1,-1,-1,-1,-1,-1,-1,-1,-1,-1,-1,-1,-1,-1,-1,-1,-1,-1,-1,-1,-1,-1,-1,-1,-1,-1,-1,-1,-1,-1,-1,-1,-1,-1,-1,-1,-1,-1,-1,-1,-1,-1,-1,-1,-1,-1,-1,-1,-1,-1,-1,-1,-1,-1,-1,-1,-1],"loss_changes":[4.2051836E3,1.0323755E3,7.8487646E2,1.9514783E2,6.313935E2,2.4444653E2,1.4599976E2,6.66162E1,9.34303E1,1.9592789E2,1.516679E2,6.175244E1,6.220761E1,6.741553E1,1.9338135E1,4.0278095E1,1.4328262E1,2.2793457E1,5.6819763E1,1.7422626E2,1.0703571E1,5.967227E1,6.675446E1,1.2462242E1,4.4046814E1,2.7531364E1,3.5256042E1,1.0732391E1,1.0948669E1,1.797351E1,1.2969666E1,5.875206E1,1.3204575E0,1.2217697E1,6.514702E-1,9.602051E0,1.5851929E1,2.3031256E1,3.2958435E1,2.9880646E1,9.1198425E1,9.849767E0,3.648735E0,2.962624E1,4.3551544E1,4.071502E1,1.4276466E1,1.67731E0,1.0466873E1,2.0592957E0,2.4407837E1,1.5122719E1,9.703818E0,9.200302E0,1.3335754E1,9.777939E0,5.9913025E0,5.2199097E0,4.3780136E0,2.7296543E0,9.764282E0,3.5229645E0,1.6958237E1,0E0,0E0,0E0,0E0,0E0,0E0,0E0,0E0,0E0,0E0,0E0,0E0,0E0,0E0,0E0,0E0,0E0,0E0,0E0,0E0,0E0,0E0,0E0,0E0,0E0,0E0,0E0,0E0,0E0,0E0,0E0,0E0,0E0,0E0,0E0,0E0,0E0,0E0,0E0,0E0,0E0,0E0,0E0,0E0,0E0,0E0,0E0,0E0,0E0,0E0,0E0,0E0,0E0,0E0,0E0,0E0,0E0,0E0,0E0,0E0,0E0,0E0,0E0,0E0],"parents":[2147483647,0,0,1,1,2,2,3,3,4,4,5,5,6,6,7,7,8,8,9,9,10,10,11,11,12,12,13,13,14,14,15,15,16,16,17,17,18,18,19,19,20,20,21,21,22,22,23,23,24,24,25,25,26,26,27,27,28,28,29,29,30,30,31,31,32,32,33,33,34,34,35,35,36,36,37,37,38,38,39,39,40,40,41,41,42,42,43,43,44,44,45,45,46,46,47,47,48,48,49,49,50,50,51,51,52,52,53,53,54,54,55,55,56,56,57,57,58,58,59,59,60,60,61,61,62,62],"right_children":[2,4,6,8,10,12,14,16,18,20,22,24,26,28,30,32,34,36,38,40,42,44,46,48,50,52,54,56,58,60,62,64,66,68,70,72,74,76,78,80,82,84,86,88,90,92,94,96,98,100,102,104,106,108,110,112,114,116,118,120,122,124,126,-1,-1,-1,-1,-1,-1,-1,-1,-1,-1,-1,-1,-1,-1,-1,-1,-1,-1,-1,-1,-1,-1,-1,-1,-1,-1,-1,-1,-1,-1,-1,-1,-1,-1,-1,-1,-1,-1,-1,-1,-1,-1,-1,-1,-1,-1,-1,-1,-1,-1,-1,-1,-1,-1,-1,-1,-1,-1,-1,-1,-1,-1,-1,-1],"split_conditions":[5.0253E0,2.8378E0,6.5891E0,3.8976834E0,2.4149444E0,2.5770235E0,7.8287E0,3.1092784E0,2.2206E0,3.8E1,3.8393E0,2.2E1,5.7214E0,2.7E1,-1.1799E2,3.793E1,-1.1784E2,2.251012E0,2.2950819E0,-1.2234E2,-1.2227E2,4.8711257E0,4.3E1,3.54E2,2.0605633E0,3.0298102E0,3.3E1,2.6575E0,3.758E1,4.805646E0,9.281E0,-1.1821E2,2.3372092E0,3.535E1,4.074E3,3.889E1,3.535E1,2.7E1,3.468E1,2E1,-1.1799E2,3.876E1,1.8793522E1,2.8965516E0,4.5E1,3.0163934E0,2.8786764E0,4.1E1,1.0911736E0,9.3010753E-1,3.8E1,3.792E1,1.7E1,3.1413794E0,3.3087718E0,9.656566E-1,-1.2199E2,2.5895522E0,-1.2135E2,3.6E1,3.799E1,1.0772059E0,1.38E2,1.2255315E-2,-1.9817013E-2,-3.2639556E-2,-4.9981542E-2,-1.9455627E-2,-3.6879353E-2,-4.656378E-2,-2.8619498E-3,-2.6264388E-2,-4.7370303E-2,-4.042177E-2,-5.093223E-2,-2.3028364E-2,1.4706886E-3,-2.391745E-2,-3.8772535E-2,3.7101873E-3,7.725329E-2,3.0427668E-2,3.1325908E-3,5.9057623E-3,-3.321097E-2,-2.6129425E-2,9.554493E-3,1.3297433E-3,-1.5223347E-2,-2.5958627E-2,7.5838465E-4,1.992294E-3,-1.1055435E-2,2.9904751E-2,7.1264314E-3,-4.3638047E-2,-1.9874198E-3,2.7343947E-2,5.252449E-2,3.959026E-2,1.02841996E-1,6.2184304E-2,-9.0308505E-4,2.457819E-2,3.710273E-4,-5.8115087E-3,8.991025E-3,3.1298265E-2,1.8197337E-2,5.690459E-2,-1.9494096E-4,1.8589897E-2,7.371373E-2,6.316635E-2,4.2572837E-2,1.0140647E-1,8.014506E-2,6.3836E-2,-7.9344455E-3,4.1560907E-2,-1.7552633E-2,1.0442227E-1,4.7295038E-2,5.732978E-2,8.59407E-2,-3.2042556E-2,1.0256195E-1],"split_indices":[0,0,0,2,5,5,0,5,0,6,0,1,0,1,7,6,7,5,5,7,7,2,1,4,5,5,1,5,6,2,0,7,5,6,4,6,6,1,6,1,7,6,2,5,1,5,5,4,3,3,6,6,1,5,5,3,7,5,7,1,6,3,4,0,0,0,0,0,0,0,0,0,0,0,0,0,0,0,0,0,0,0,0,0,0,0,0,0,0,0,0,0,0,0,0,0,0,0,0,0,0,0,0,0,0,0,0,0,0,0,0,0,0,0,0,0,0,0,0,0,0,0,0,0,0,0,0],"split_type":[0,0,0,0,0,0,0,0,0,0,0,0,0,0,0,0,0,0,0,0,0,0,0,0,0,0,0,0,0,0,0,0,0,0,0,0,0,0,0,0,0,0,0,0,0,0,0,0,0,0,0,0,0,0,0,0,0,0,0,0,0,0,0,0,0,0,0,0,0,0,0,0,0,0,0,0,0,0,0,0,0,0,0,0,0,0,0,0,0,0,0,0,0,0,0,0,0,0,0,0,0,0,0,0,0,0,0,0,0,0,0,0,0,0,0,0,0,0,0,0,0,0,0,0,0,0,0],"sum_hessian":[1.6512E4,1.2932E4,3.58E3,5.284E3,7.648E3,2.316E3,1.264E3,1.468E3,3.816E3,1.999E3,5.649E3,6.46E2,1.67E3,6.43E2,6.21E2,6.9E2,7.78E2,1.868E3,1.948E3,1.736E3,2.63E2,2.962E3,2.687E3,1.99E2,4.47E2,9.54E2,7.16E2,4.03E2,2.4E2,4.75E2,1.46E2,6.18E2,7.2E1,7.06E2,7.2E1,3.04E2,1.564E3,3.83E2,1.565E3,2.05E2,1.531E3,8.8E1,1.75E2,1.144E3,1.818E3,2.396E3,2.91E2,1.5E1,1.84E2,8E1,3.67E2,4.75E2,4.79E2,5.62E2,1.54E2,7.9E1,3.24E2,1.88E2,5.2E1,6E0,4.69E2,8.4E1,6.2E1,3.96E2,2.22E2,5E1,2.2E1,5.83E2,1.23E2,7.1E1,1E0,2.31E2,7.3E1,6.39E2,9.25E2,1.98E2,1.85E2,6.37E2,9.28E2,1.5E1,1.9E2,1.108E3,4.23E2,6.8E1,2E1,1.68E2,7E0,4.37E2,7.07E2,1.65E3,1.68E2,1.258E3,1.138E3,1.78E2,1.13E2,2E0,1.3E1,1.16E2,6.8E1,3E0,7.7E1,3.51E2,1.6E1,3.98E2,7.7E1,1.72E2,3.07E2,3.23E2,2.39E2,1.43E2,1.1E1,1E1,6.9E1,4.6E1,2.78E2,8.1E1,1.07E2,5E1,2E0,3E0,3E0,4.59E2,1E1,6.4E1,2E1,2E0,6E1],"tree_param":{"num_deleted":"0","num_feature":"8","num_nodes":"127","size_leaf_vector":"1"}},{"base_weights":[4.013689E-4,-2.4039277E-1,9.5589906E-1,-5.232143E-1,2.4486668E-2,6.656375E-1,1.6221492E0,-3.177545E-1,-6.696101E-1,4.878404E-1,-1.5210557E-1,1.0994318E0,4.3789282E-1,1.3728306E0,1.9554421E0,-5.197225E-1,-8.21131E-2,-8.174288E-1,-4.904451E-1,6.1814094E-1,-2.2289734E-1,-2.4842925E-1,8.613316E-2,6.698563E-1,1.2866465E0,2.479354E-1,6.4611095E-1,1.1244808E0,1.7378645E0,7.9163903E-1,1.9870344E0,-2.4319792E-1,-6.9691426E-1,1.7568961E-1,-3.1653374E-1,-5.743553E-1,-8.7257975E-1,-1.5705773E-1,-5.522294E-1,2.063037E-1,8.6181784E-1,1.4021188E-1,-4.245121E-1,2.2589521E-1,-2.8783098E-1,-1.6375995E-1,2.006112E-1,3.8670778E-1,8.95608E-1,1.7996875E0,1.1360577E0,3.9705178E-1,7.477392E-2,5.2776384E-1,9.9889034E-1,9.066785E-1,1.2868234E0,1.8586335E0,1.2704409E0,-3.229034E-2,1.1117026E0,2.006495E0,3.195691E-1,-2.4387456E-2,-3.874556E-3,-3.9686233E-2,-2.5405098E-2,5.2642483E-2,4.0421537E-3,-1.3677699E-2,-3.5744194E-2,-6.487893E-4,-3.1834643E-2,-1.5081811E-2,-4.43788E-2,-5.5989414E-5,-2.5882512E-2,-2.9180864E-2,-5.3823437E-3,2.1749722E-2,-1.9950178E-3,6.725546E-2,3.1795792E-2,2.8143534E-2,-9.942947E-3,-2.2418734E-2,4.9953717E-3,2.2814864E-2,-4.1128866E-2,-1.1129111E-2,-2.9547611E-2,1.8014892E-3,-1.13758035E-2,3.1161377E-2,6.914952E-3,-3.854416E-3,2.5510332E-2,3.342656E-2,5.841559E-2,9.644201E-2,4.9221594E-2,4.688328E-2,7.3645726E-2,1.6805245E-2,4.6065655E-2,7.060125E-2,2.9997618E-3,1.9280305E-2,3.393627E-2,5.480955E-2,1.5835354E-2,1.9807482E-2,4.883163E-2,7.2314985E-2,4.8150912E-2,7.744451E-2,1.0004047E-1,6.822474E-2,6.612359E-3,-9.439266E-3,8.114918E-2,8.886277E-2,1.0552994E-1,2.5585419E-2,-1.6028184E-2],"categories":[],"categories_nodes":[],"categories_segments":[],"categories_sizes":[],"default_left":[0,0,0,0,0,0,0,0,0,0,0,0,0,0,0,0,0,0,0,0,0,0,0,0,0,0,0,0,0,0,0,0,0,0,0,0,0,0,0,0,0,0,0,0,0,0,0,0,0,0,0,0,0,0,0,0,0,0,0,0,0,0,0,0,0,0,0,0,0,0,0,0,0,0,0,0,0,0,0,0,0,0,0,0,0,0,0,0,0,0,0,0,0,0,0,0,0,0,0,0,0,0,0,0,0,0,0,0,0,0,0,0,0,0,0,0,0,0,0,0,0,0,0,0,0],"id":6,"left_children":[1,3,5,7,9,11,13,15,17,19,21,23,25,27,29,31,33,35,37,39,41,43,45,47,49,51,53,55,57,59,61,63,65,67,69,71,73,75,77,79,81,83,85,87,89,91,93,95,97,99,101,103,105,107,109,111,113,115,117,-1,119,121,123,-1,-1,-1,-1,-1,-1,-1,-1,-1,-1,-1,-1,-1,-1,-1,-1,-1,-1,-1,-1,-1,-1,-1,-1,-1,-1,-1,-1,-1,-1,-1,-1,-1,-1,-1,-1,-1,-1,-1,-1,-1,-1,-1,-1,-1,-1,-1,-1,-1,-1,-1,-1,-1,-1,-1,-1,-1,-1,-1,-1,-1,-1],"loss_changes":[3.7995115E3,9.881232E2,6.417383E2,1.916576E2,5.574638E2,2.2842493E2,8.1076416E1,1.26361725E2,9.822534E1,1.7424371E2,1.1322405E2,6.3235046E1,5.9999268E1,5.0626343E1,1.4200195E1,6.989746E1,7.4208466E1,2.683313E1,3.4641663E1,1.5928662E2,2.1436308E1,6.5720184E1,4.0683792E1,1.525045E1,4.075653E1,2.0549816E1,2.9741882E1,1.1138031E1,1.0791687E1,6.698906E0,1.2890503E1,2.2655533E1,1.5517731E1,4.8584305E1,1.0813248E1,1.3289841E1,1.394519E1,1.4900384E1,1.9780487E1,3.334967E1,1.0810278E2,1.5159615E1,2.3974266E0,6.55993E1,6.4029205E1,5.7020016E0,2.5589588E1,6.339943E0,7.5787735E0,1.1157501E1,2.7422485E1,1.3365837E1,7.2275276E0,1.1434174E1,1.1667053E1,5.04158E0,8.780121E0,4.9599E0,5.279167E0,0E0,7.6204576E0,6.0810547E0,9.020031E-1,0E0,0E0,0E0,0E0,0E0,0E0,0E0,0E0,0E0,0E0,0E0,0E0,0E0,0E0,0E0,0E0,0E0,0E0,0E0,0E0,0E0,0E0,0E0,0E0,0E0,0E0,0E0,0E0,0E0,0E0,0E0,0E0,0E0,0E0,0E0,0E0,0E0,0E0,0E0,0E0,0E0,0E0,0E0,0E0,0E0,0E0,0E0,0E0,0E0,0E0,0E0,0E0,0E0,0E0,0E0,0E0,0E0,0E0,0E0,0E0,0E0,0E0],"parents":[2147483647,0,0,1,1,2,2,3,3,4,4,5,5,6,6,7,7,8,8,9,9,10,10,11,11,12,12,13,13,14,14,15,15,16,16,17,17,18,18,19,19,20,20,21,21,22,22,23,23,24,24,25,25,26,26,27,27,28,28,29,29,30,30,31,31,32,32,33,33,34,34,35,35,36,36,37,37,38,38,39,39,40,40,41,41,42,42,43,43,44,44,45,45,46,46,47,47,48,48,49,49,50,50,51,51,52,52,53,53,54,54,55,55,56,56,57,57,58,58,60,60,61,61,62,62],"right_children":[2,4,6,8,10,12,14,16,18,20,22,24,26,28,30,32,34,36,38,40,42,44,46,48,50,52,54,56,58,60,62,64,66,68,70,72,74,76,78,80,82,84,86,88,90,92,94,96,98,100,102,104,106,108,110,112,114,116,118,-1,120,122,124,-1,-1,-1,-1,-1,-1,-1,-1,-1,-1,-1,-1,-1,-1,-1,-1,-1,-1,-1,-1,-1,-1,-1,-1,-1,-1,-1,-1,-1,-1,-1,-1,-1,-1,-1,-1,-1,-1,-1,-1,-1,-1,-1,-1,-1,-1,-1,-1,-1,-1,-1,-1,-1,-1,-1,-1,-1,-1,-1,-1,-1,-1],"split_conditions":[5.1228E0,3.099E0,6.9343E0,4.314229E0,2.448485E0,2.6575E0,8.4411E0,2.2328E0,2.5125E0,3.794E1,4.3958E0,2.2E1,5.826E0,2.7E1,6.9E1,3.517691E0,2.810345E0,2.2873304E0,2.2777777E0,2.5E1,-1.2236E2,-1.2239E2,1.9E1,5.6345E0,2.2105262E0,3.125E0,2.8E1,1.0128205E0,3.761E1,3.407E1,3.799E1,3.405E1,1.962E0,-1.2234E2,-1.1778E2,3.349E1,1.68E2,3.796E1,4.8E1,-1.1829E2,2.0055096E0,3.832E1,1.8793522E1,3.87E1,3.774E1,-1.2145E2,-1.222E2,1.0206896E0,1.0707692E0,3.781E1,6.091E0,3.8E1,1.68E2,6.2924E0,-1.1796E2,6.05E2,-1.1782E2,1.0142857E0,-1.2149E2,-3.229034E-2,2.1189592E0,2.1E1,2.8E1,-2.4387456E-2,-3.874556E-3,-3.9686233E-2,-2.5405098E-2,5.2642483E-2,4.0421537E-3,-1.3677699E-2,-3.5744194E-2,-6.487893E-4,-3.1834643E-2,-1.5081811E-2,-4.43788E-2,-5.5989414E-5,-2.5882512E-2,-2.9180864E-2,-5.3823437E-3,2.1749722E-2,-1.9950178E-3,6.725546E-2,3.1795792E-2,2.8143534E-2,-9.942947E-3,-2.2418734E-2,4.9953717E-3,2.2814864E-2,-4.1128866E-2,-1.1129111E-2,-2.9547611E-2,1.8014892E-3,-1.13758035E-2,3.1161377E-2,6.914952E-3,-3.854416E-3,2.5510332E-2,3.342656E-2,5.841559E-2,9.644201E-2,4.9221594E-2,4.688328E-2,7.3645726E-2,1.6805245E-2,4.6065655E-2,7.060125E-2,2.9997618E-3,1.9280305E-2,3.393627E-2,5.480955E-2,1.5835354E-2,1.9807482E-2,4.883163E-2,7.2314985E-2,4.8150912E-2,7.744451E-2,1.0004047E-1,6.822474E-2,6.612359E-3,-9.439266E-3,8.114918E-2,8.886277E-2,1.0552994E-1,2.5585419E-2,-1.6028184E-2],"split_indices":[0,0,0,2,5,5,0,0,0,6,0,1,0,1,4,2,5,5,5,1,7,7,1,0,5,5,1,3,6,6,6,6,0,7,7,6,4,6,1,7,5,6,2,6,6,7,7,3,3,6,0,1,4,0,7,4,7,3,7,0,5,1,1,0,0,0,0,0,0,0,0,0,0,0,0,0,0,0,0,0,0,0,0,0,0,0,0,0,0,0,0,0,0,0,0,0,0,0,0,0,0,0,0,0,0,0,0,0,0,0,0,0,0,0,0,0,0,0,0,0,0,0,0,0,0],"split_type":[0,0,0,0,0,0,0,0,0,0,0,0,0,0,0,0,0,0,0,0,0,0,0,0,0,0,0,0,0,0,0,0,0,0,0,0,0,0,0,0,0,0,0,0,0,0,0,0,0,0,0,0,0,0,0,0,0,0,0,0,0,0,0,0,0,0,0,0,0,0,0,0,0,0,0,0,0,0,0,0,0,0,0,0,0,0,0,0,0,0,0,0,0,0,0,0,0,0,0,0,0,0,0,0,0,0,0,0,0,0,0,0,0,0,0,0,0,0,0,0,0,0,0,0,0],"sum_hessian":[1.6512E4,1.3189E4,3.323E3,6.378E3,6.811E3,2.316E3,1.007E3,2.655E3,3.723E3,1.879E3,4.932E3,7.96E2,1.52E3,5.79E2,4.28E2,1.429E3,1.226E3,2.038E3,1.685E3,1.588E3,2.91E2,3.512E3,1.42E3,2.43E2,5.53E2,7.96E2,7.24E2,3.47E2,2.32E2,1.2E1,4.16E2,5.59E2,8.7E2,5.84E2,6.42E2,3.79E2,1.659E3,2.64E2,1.421E3,5.91E2,9.97E2,1.04E2,1.87E2,2.69E2,3.243E3,4.46E2,9.74E2,1.09E2,1.34E2,1.23E2,4.3E2,4.27E2,3.69E2,5.44E2,1.8E2,1.51E2,1.96E2,1.82E2,5E1,2E0,1E1,4.11E2,5E0,2.25E2,3.34E2,5.73E2,2.97E2,5.6E1,5.28E2,5.81E2,6.1E1,3.8E1,3.41E2,4.3E1,1.616E3,1.85E2,7.9E1,1.327E3,9.4E1,3.06E2,2.85E2,3.16E2,6.81E2,4.6E1,5.8E1,1.79E2,8E0,2.21E2,4.8E1,2.67E3,5.73E2,1.08E2,3.38E2,1.24E2,8.5E2,2.3E1,8.6E1,7.5E1,5.9E1,1.05E2,1.8E1,2.73E2,1.57E2,3.84E2,4.3E1,3E0,3.66E2,2.82E2,2.62E2,1.57E2,2.3E1,1.9E1,1.32E2,1.29E2,6.7E1,6.1E1,1.21E2,4.6E1,4E0,3E0,7E0,1.34E2,2.77E2,4E0,1E0],"tree_param":{"num_deleted":"0","num_feature":"8","num_nodes":"125","size_leaf_vector":"1"}},{"base_weights":[4.524874E-4,-2.0605968E-1,1.008882E0,-4.55862E-1,9.3375586E-2,7.7786195E-1,1.7220246E0,-5.082859E-2,-5.333352E-1,6.1469084E-1,-7.233691E-2,1.176123E0,5.759201E-1,1.4145789E0,1.8537678E0,9.162053E-2,-5.423536E-1,-3.8284266E-1,-6.7736727E-1,1.3680996E-1,8.0094683E-1,-1.8010706E-1,1.4838517E-1,8.0033505E-1,1.3293182E0,3.967811E-1,8.561422E-1,1.1229403E0,1.7302247E0,8.497419E-1,1.8845267E0,3.5813615E-1,-2.456277E-1,-4.5223424E-1,-8.1961864E-1,-2.3107114E-1,-6.908021E-1,-4.3876258E-1,-8.3567196E-1,3.8765505E-2,3.8990143E-1,9.6569186E-1,6.959258E-2,3.4782728E-3,-2.8396872E-1,-8.0045976E-2,2.8129172E-1,2.3889685E-2,8.733828E-1,1.9413182E0,1.2312695E0,5.3733224E-1,2.066463E-1,7.393268E-1,1.2632306E0,8.6966497E-1,1.2800704E0,2.9030481E-2,1.7601023E0,-3.394382E-2,1.2547212E0,1.9038074E0,5.5237913E-1,5.8856796E-2,1.2549869E-2,-1.9537346E-2,1.0552585E-2,-4.2349377E-4,-2.9534E-2,-4.3797698E-2,-2.4890399E-2,-8.875206E-4,-2.1478342E-2,-3.2093804E-2,-4.944138E-2,-1.040104E-2,-4.4247534E-2,-3.685009E-2,-4.9773797E-2,5.328355E-3,-1.6856598E-2,3.0980868E-2,4.824174E-3,7.319979E-2,3.799514E-2,-9.509604E-3,2.2287423E-2,6.271022E-3,-1.8096844E-2,7.496876E-3,-1.5895203E-2,-1.636567E-2,-6.8378076E-4,2.7556468E-2,7.7702026E-3,1.0095599E-2,-2.574776E-2,3.3059753E-2,5.571127E-2,2.7042469E-2,1.0101984E-1,5.1390875E-2,7.7146485E-2,3.0225718E-2,7.3475637E-3,1.3064811E-2,-1.2400779E-2,5.31859E-2,3.423623E-2,6.689046E-2,1.5081331E-2,-6.8612373E-3,4.5927573E-2,7.660093E-2,4.9523667E-2,8.894873E-2,2.9103508E-2,5.9205294E-4,8.132006E-2,8.8311695E-2,1.0286426E-1,-7.2605098E-3,4.045553E-2],"categories":[],"categories_nodes":[],"categories_segments":[],"categories_sizes":[],"default_left":[0,0,0,0,0,0,0,0,0,0,0,0,0,0,0,0,0,0,0,0,0,0,0,0,0,0,0,0,0,0,0,0,0,0,0,0,0,0,0,0,0,0,0,0,0,0,0,0,0,0,0,0,0,0,0,0,0,0,0,0,0,0,0,0,0,0,0,0,0,0,0,0,0,0,0,0,0,0,0,0,0,0,0,0,0,0,0,0,0,0,0,0,0,0,0,0,0,0,0,0,0,0,0,0,0,0,0,0,0,0,0,0,0,0,0,0,0,0,0,0,0,0,0],"id":7,"left_children":[1,3,5,7,9,11,13,15,17,19,21,23,25,27,29,31,33,35,37,39,41,43,45,47,49,51,53,55,57,59,61,63,65,67,69,71,73,75,77,79,81,83,85,87,89,91,93,95,97,99,101,103,105,107,109,111,113,-1,115,-1,117,119,121,-1,-1,-1,-1,-1,-1,-1,-1,-1,-1,-1,-1,-1,-1,-1,-1,-1,-1,-1,-1,-1,-1,-1,-1,-1,-1,-1,-1,-1,-1,-1,-1,-1,-1,-1,-1,-1,-1,-1,-1,-1,-1,-1,-1,-1,-1,-1,-1,-1,-1,-1,-1,-1,-1,-1,-1,-1,-1,-1,-1],"loss_changes":[3.439089E3,1.0253209E3,4.611145E2,2.3446985E2,5.386765E2,1.6998572E2,2.516333E1,8.414047E1,1.3571252E2,1.3375873E2,1.12588E2,3.9982727E1,7.044043E1,1.738852E1,1.3129761E1,8.385792E1,6.3758087E0,1.4333057E2,1.2065564E2,1.0481298E1,1.3029974E2,6.063556E1,4.717158E1,1.183313E1,2.7912598E1,2.2924774E1,2.517331E1,3.3440552E0,2.378479E0,1.0756741E1,1.0814697E1,4.5420547E1,2.7386925E1,1.2651085E1,7.4235153E-1,8.713477E1,1.4135986E1,1.3159735E2,2.9619507E1,7.8347793E0,7.8937435E0,8.943512E1,1.9628683E1,5.1288837E1,2.9953629E1,9.382746E0,3.327214E1,1.9265772E0,9.024109E0,6.4380493E0,2.6186829E1,1.2893341E1,9.2085905E0,6.870285E0,8.274017E0,2.390316E0,3.3711243E0,0E0,1.0988159E0,0E0,5.9861393E0,5.9733887E0,1.550236E0,0E0,0E0,0E0,0E0,0E0,0E0,0E0,0E0,0E0,0E0,0E0,0E0,0E0,0E0,0E0,0E0,0E0,0E0,0E0,0E0,0E0,0E0,0E0,0E0,0E0,0E0,0E0,0E0,0E0,0E0,0E0,0E0,0E0,0E0,0E0,0E0,0E0,0E0,0E0,0E0,0E0,0E0,0E0,0E0,0E0,0E0,0E0,0E0,0E0,0E0,0E0,0E0,0E0,0E0,0E0,0E0,0E0,0E0,0E0,0E0],"parents":[2147483647,0,0,1,1,2,2,3,3,4,4,5,5,6,6,7,7,8,8,9,9,10,10,11,11,12,12,13,13,14,14,15,15,16,16,17,17,18,18,19,19,20,20,21,21,22,22,23,23,24,24,25,25,26,26,27,27,28,28,29,29,30,30,31,31,32,32,33,33,34,34,35,35,36,36,37,37,38,38,39,39,40,40,41,41,42,42,43,43,44,44,45,45,46,46,47,47,48,48,49,49,50,50,51,51,52,52,53,53,54,54,55,55,56,56,58,58,60,60,61,61,62,62],"right_children":[2,4,6,8,10,12,14,16,18,20,22,24,26,28,30,32,34,36,38,40,42,44,46,48,50,52,54,56,58,60,62,64,66,68,70,72,74,76,78,80,82,84,86,88,90,92,94,96,98,100,102,104,106,108,110,112,114,-1,116,-1,118,120,122,-1,-1,-1,-1,-1,-1,-1,-1,-1,-1,-1,-1,-1,-1,-1,-1,-1,-1,-1,-1,-1,-1,-1,-1,-1,-1,-1,-1,-1,-1,-1,-1,-1,-1,-1,-1,-1,-1,-1,-1,-1,-1,-1,-1,-1,-1,-1,-1,-1,-1,-1,-1,-1,-1,-1,-1,-1,-1,-1,-1],"split_conditions":[5.3681E0,3.3427E0,7.6659E0,2.178501E0,2.4149444E0,2.6575E0,1.9E1,3.793E1,3.451E1,2E1,4.5417E0,2.2E1,6.2924E0,8.7471E0,1.38E2,-1.1825E2,3.894E1,-1.1778E2,-1.2162E2,1.7E1,3.782E1,2.805492E0,2.1E1,3.69E2,2.0756502E0,3.1413794E0,2.8E1,1.0094192E0,8.5714287E-1,3.408E1,3.805E1,-1.2231E2,3.3E1,-1.2226E2,-1.2122E2,3.4511628E0,-1.1667E2,3.868E1,-1.1985E2,3.796E1,5.10303E0,1.9598699E0,4.125E0,3.781E1,-1.2239E2,9.928741E-1,2.734E0,8.442105E0,1.0707692E0,9.0967745E-1,6.3525E0,3.794E1,3.776E1,-1.2199E2,-1.1792E2,1.38E2,-1.1784E2,2.9030481E-2,1.1415929E1,-3.394382E-2,2.1189592E0,9.281E0,6.982709E0,5.8856796E-2,1.2549869E-2,-1.9537346E-2,1.0552585E-2,-4.2349377E-4,-2.9534E-2,-4.3797698E-2,-2.4890399E-2,-8.875206E-4,-2.1478342E-2,-3.2093804E-2,-4.944138E-2,-1.040104E-2,-4.4247534E-2,-3.685009E-2,-4.9773797E-2,5.328355E-3,-1.6856598E-2,3.0980868E-2,4.824174E-3,7.319979E-2,3.799514E-2,-9.509604E-3,2.2287423E-2,6.271022E-3,-1.8096844E-2,7.496876E-3,-1.5895203E-2,-1.636567E-2,-6.8378076E-4,2.7556468E-2,7.7702026E-3,1.0095599E-2,-2.574776E-2,3.3059753E-2,5.571127E-2,2.7042469E-2,1.0101984E-1,5.1390875E-2,7.7146485E-2,3.0225718E-2,7.3475637E-3,1.3064811E-2,-1.2400779E-2,5.31859E-2,3.423623E-2,6.689046E-2,1.5081331E-2,-6.8612373E-3,4.5927573E-2,7.660093E-2,4.9523667E-2,8.894873E-2,2.9103508E-2,5.9205294E-4,8.132006E-2,8.8311695E-2,1.0286426E-1,-7.2605098E-3,4.045553E-2],"split_indices":[0,0,0,5,5,5,1,6,6,1,0,1,0,0,4,7,6,7,7,1,6,5,1,4,5,5,1,3,3,6,6,7,1,7,7,5,7,6,7,6,2,5,0,6,7,3,5,2,3,3,0,6,6,7,7,4,7,0,2,0,5,0,2,0,0,0,0,0,0,0,0,0,0,0,0,0,0,0,0,0,0,0,0,0,0,0,0,0,0,0,0,0,0,0,0,0,0,0,0,0,0,0,0,0,0,0,0,0,0,0,0,0,0,0,0,0,0,0,0,0,0,0,0],"split_type":[0,0,0,0,0,0,0,0,0,0,0,0,0,0,0,0,0,0,0,0,0,0,0,0,0,0,0,0,0,0,0,0,0,0,0,0,0,0,0,0,0,0,0,0,0,0,0,0,0,0,0,0,0,0,0,0,0,0,0,0,0,0,0,0,0,0,0,0,0,0,0,0,0,0,0,0,0,0,0,0,0,0,0,0,0,0,0,0,0,0,0,0,0,0,0,0,0,0,0,0,0,0,0,0,0,0,0,0,0,0,0,0,0,0,0,0,0,0,0,0,0,0,0],"sum_hessian":[1.6512E4,1.3706E4,2.806E3,7.472E3,6.234E3,2.121E3,6.85E2,1.2E3,6.272E3,1.503E3,4.731E3,7.12E2,1.409E3,2.09E2,4.76E2,9.31E2,2.69E2,3.069E3,3.203E3,4.22E2,1.081E3,3.179E3,1.552E3,2.08E2,5.04E2,8.61E2,5.48E2,1.11E2,9.8E1,1.5E1,4.61E2,5.2E2,4.11E2,2.05E2,6.4E1,2.057E3,1.012E3,1.279E3,1.924E3,3.05E2,1.17E2,8.82E2,1.99E2,1.149E3,2.03E3,5.71E2,9.81E2,1.8E1,1.9E2,6.7E1,4.37E2,4.94E2,3.67E2,4.28E2,1.2E2,4.5E1,6.6E1,3E0,9.5E1,3E0,1.2E1,4.54E2,7E0,5.9E1,4.61E2,3.12E2,9.9E1,4.9E1,1.56E2,5.3E1,1.1E1,9.92E2,1.065E3,8.72E2,1.4E2,8.44E2,4.35E2,1.193E3,7.31E2,2.59E2,4.6E1,6.5E1,5.2E1,2.56E2,6.26E2,1.18E2,8.1E1,8.62E2,2.87E2,1.47E2,1.883E3,1.2E2,4.51E2,3.11E2,6.7E2,1.4E1,4E0,1.03E2,8.7E1,4E0,6.3E1,2.67E2,1.7E2,4.21E2,7.3E1,3.28E2,3.9E1,5.9E1,3.69E2,1.11E2,9E0,2E0,4.3E1,3.3E1,3.3E1,9.3E1,2E0,3E0,9E0,2.46E2,2.08E2,2E0,5E0],"tree_param":{"num_deleted":"0","num_feature":"8","num_nodes":"123","size_leaf_vector":"1"}},{"base_weights":[4.896186E-4,-2.2782478E-1,8.2506084E-1,-5.324672E-1,-3.0240195E-2,5.270541E-1,1.3702439E0,-2.5557253E-1,-6.423338E-1,4.9351743E-1,-1.4935695E-1,9.825286E-1,3.50382E-1,1.0801582E0,1.6683868E0,-2.9006701E-2,-4.1151747E-1,-7.698939E-1,-5.0758064E-1,1.1079129E-1,7.3243713E-1,-2.898864E-1,1.610428E-2,5.760547E-1,1.161797E0,1.780089E-1,5.1586974E-1,8.614625E-1,1.4422866E0,1.7618415E0,1.3571748E0,5.580112E-2,-6.71405E-1,-1.5047306E-1,-4.871667E-1,-4.538988E-1,-7.99617E-1,-2.602946E-1,-5.882117E-1,-1.4242254E-1,2.9567057E-1,8.92023E-1,4.8539E-3,-1.4219038E-1,-4.1486284E-1,2.2934508E-1,-1.1395223E-1,-2.1770182E-1,6.415901E-1,1.7562978E0,1.0277852E0,-4.112097E-2,2.8625175E-1,6.908686E-1,3.255273E-1,1.2707675E0,7.9872787E-1,1.552522E0,1.0219704E0,2.249728E-1,1.7810233E0,1.106275E0,1.6781304E0,1.268623E-2,-1.4765545E-2,-1.8813996E-2,-3.634676E-2,-1.6876751E-3,-2.680972E-2,-2.9440755E-2,-1.5932156E-2,6.0002584E-2,-2.3575805E-2,-3.3299454E-2,-4.290405E-2,5.616491E-2,-1.4928408E-2,-1.6999071E-2,-3.2637935E-2,5.8992922E-5,-1.8438263E-2,2.8594087E-3,2.8769178E-2,3.0537993E-2,6.3737415E-2,1.3352225E-2,-1.8075658E-2,-1.0002124E-3,-1.5438901E-2,-2.2831688E-2,5.6653316E-3,1.6504107E-2,-8.04839E-3,-2.6578242E-3,-1.8730154E-2,-4.3241892E-2,-3.1739844E-3,3.989202E-2,1.7388875E-2,3.289799E-2,8.950531E-2,5.393855E-2,-4.4189403E-3,-1.1545598E-2,4.5581474E-3,1.5907537E-2,-1.9753851E-2,2.6903993E-2,4.9436655E-2,1.864378E-2,-4.3627955E-3,1.5648082E-2,7.600533E-2,5.490135E-2,3.6929864E-2,8.79707E-2,6.9053106E-2,7.902299E-2,4.0998116E-2,-5.740871E-3,5.6592852E-2,8.983644E-2,3.2569934E-2,4.8258793E-2,7.485249E-2,-3.1063667E-2,8.818527E-2],"categories":[],"categories_nodes":[],"categories_segments":[],"categories_sizes":[],"default_left":[0,0,0,0,0,0,0,0,0,0,0,0,0,0,0,0,0,0,0,0,0,0,0,0,0,0,0,0,0,0,0,0,0,0,0,0,0,0,0,0,0,0,0,0,0,0,0,0,0,0,0,0,0,0,0,0,0,0,0,0,0,0,0,0,0,0,0,0,0,0,0,0,0,0,0,0,0,0,0,0,0,0,0,0,0,0,0,0,0,0,0,0,0,0,0,0,0,0,0,0,0,0,0,0,0,0,0,0,0,0,0,0,0,0,0,0,0,0,0,0,0,0,0,0,0,0,0],"id":8,"left_children":[1,3,5,7,9,11,13,15,17,19,21,23,25,27,29,31,33,35,37,39,41,43,45,47,49,51,53,55,57,59,61,63,65,67,69,71,73,75,77,79,81,83,85,87,89,91,93,95,97,99,101,103,105,107,109,111,113,115,117,119,121,123,125,-1,-1,-1,-1,-1,-1,-1,-1,-1,-1,-1,-1,-1,-1,-1,-1,-1,-1,-1,-1,-1,-1,-1,-1,-1,-1,-1,-1,-1,-1,-1,-1,-1,-1,-1,-1,-1,-1,-1,-1,-1,-1,-1,-1,-1,-1,-1,-1,-1,-1,-1,-1,-1,-1,-1,-1,-1,-1,-1,-1,-1,-1,-1,-1],"loss_changes":[3.1089497E3,7.784555E2,5.8107666E2,1.5462024E2,4.8957236E2,1.8610394E2,1.0760376E2,5.1113174E1,6.2212036E1,1.3287378E2,1.4865582E2,4.647632E1,4.757448E1,4.9759705E1,1.5699219E1,3.2235382E1,1.685057E1,1.7191284E1,3.5218567E1,2.6257944E1,1.03915985E2,6.3752136E1,8.1479E1,1.0543503E1,3.3887146E1,1.9461548E1,2.8154984E1,9.358734E0,9.579803E0,1.3602173E1,1.0061615E1,3.6419933E1,8.5726357E-1,8.716018E0,1.1186783E1,5.315361E0,1.2764404E1,2.3529694E1,2.1200195E1,7.7037296E0,2.158004E1,7.823395E1,1.5657936E1,3.227638E1,4.135199E1,4.381516E1,2.8899881E1,1.5419433E0,8.215561E0,1.8299408E0,2.103769E1,6.849962E0,1.2057491E1,1.9629074E1,8.045803E0,1.1942818E1,5.5419617E0,4.274658E0,4.683502E0,2.2870097E0,7.1503906E0,3.2969513E0,1.3492355E1,0E0,0E0,0E0,0E0,0E0,0E0,0E0,0E0,0E0,0E0,0E0,0E0,0E0,0E0,0E0,0E0,0E0,0E0,0E0,0E0,0E0,0E0,0E0,0E0,0E0,0E0,0E0,0E0,0E0,0E0,0E0,0E0,0E0,0E0,0E0,0E0,0E0,0E0,0E0,0E0,0E0,0E0,0E0,0E0,0E0,0E0,0E0,0E0,0E0,0E0,0E0,0E0,0E0,0E0,0E0,0E0,0E0,0E0,0E0,0E0,0E0,0E0,0E0,0E0],"parents":[2147483647,0,0,1,1,2,2,3,3,4,4,5,5,6,6,7,7,8,8,9,9,10,10,11,11,12,12,13,13,14,14,15,15,16,16,17,17,18,18,19,19,20,20,21,21,22,22,23,23,24,24,25,25,26,26,27,27,28,28,29,29,30,30,31,31,32,32,33,33,34,34,35,35,36,36,37,37,38,38,39,39,40,40,41,41,42,42,43,43,44,44,45,45,46,46,47,47,48,48,49,49,50,50,51,51,52,52,53,53,54,54,55,55,56,56,57,57,58,58,59,59,60,60,61,61,62,62],"right_children":[2,4,6,8,10,12,14,16,18,20,22,24,26,28,30,32,34,36,38,40,42,44,46,48,50,52,54,56,58,60,62,64,66,68,70,72,74,76,78,80,82,84,86,88,90,92,94,96,98,100,102,104,106,108,110,112,114,116,118,120,122,124,126,-1,-1,-1,-1,-1,-1,-1,-1,-1,-1,-1,-1,-1,-1,-1,-1,-1,-1,-1,-1,-1,-1,-1,-1,-1,-1,-1,-1,-1,-1,-1,-1,-1,-1,-1,-1,-1,-1,-1,-1,-1,-1,-1,-1,-1,-1,-1,-1,-1,-1,-1,-1,-1,-1,-1,-1,-1,-1,-1,-1,-1,-1,-1,-1],"split_conditions":[5.0253E0,2.7813E0,6.5891E0,3.8976834E0,2.2777777E0,2.5770235E0,7.8287E0,2.8965516E0,2.2206E0,2.5E1,3.8393E0,2.2E1,5.5942E0,2.7E1,-1.18E2,3.793E1,3.045238E0,2.0333333E0,4.4259543E0,3.5268E0,3.782E1,5.009709E0,2.7748537E0,3.54E2,2.0605633E0,1.8E1,3.0374532E0,2.511236E0,3.758E1,4.805646E0,9.281E0,-1.1821E2,-1.2251E2,-1.1822E2,2.2328E0,3E0,3.411E1,-1.2241E2,2.3372092E0,3.542E1,1.7E1,3.6875E0,3.805E1,3.1413794E0,4.7E1,3.79E1,-1.1778E2,4.1E1,-1.1784E2,9.3010753E-1,3.8E1,1.0206896E0,-1.172E2,3.3E1,3.776E1,1.0064934E0,-1.2199E2,2.5895522E0,-1.2242E2,8.917526E-1,3.855E1,1.0772059E0,1.38E2,1.268623E-2,-1.4765545E-2,-1.8813996E-2,-3.634676E-2,-1.6876751E-3,-2.680972E-2,-2.9440755E-2,-1.5932156E-2,6.0002584E-2,-2.3575805E-2,-3.3299454E-2,-4.290405E-2,5.616491E-2,-1.4928408E-2,-1.6999071E-2,-3.2637935E-2,5.8992922E-5,-1.8438263E-2,2.8594087E-3,2.8769178E-2,3.0537993E-2,6.3737415E-2,1.3352225E-2,-1.8075658E-2,-1.0002124E-3,-1.5438901E-2,-2.2831688E-2,5.6653316E-3,1.6504107E-2,-8.04839E-3,-2.6578242E-3,-1.8730154E-2,-4.3241892E-2,-3.1739844E-3,3.989202E-2,1.7388875E-2,3.289799E-2,8.950531E-2,5.393855E-2,-4.4189403E-3,-1.1545598E-2,4.5581474E-3,1.5907537E-2,-1.9753851E-2,2.6903993E-2,4.9436655E-2,1.864378E-2,-4.3627955E-3,1.5648082E-2,7.600533E-2,5.490135E-2,3.6929864E-2,8.79707E-2,6.9053106E-2,7.902299E-2,4.0998116E-2,-5.740871E-3,5.6592852E-2,8.983644E-2,3.2569934E-2,4.8258793E-2,7.485249E-2,-3.1063667E-2,8.818527E-2],"split_indices":[0,0,0,2,5,5,0,5,0,1,0,1,0,1,7,6,2,5,2,0,6,2,5,4,5,1,5,5,6,2,0,7,7,7,0,1,6,7,5,6,1,0,6,5,1,6,7,4,7,3,6,3,7,1,6,3,7,5,7,3,6,3,4,0,0,0,0,0,0,0,0,0,0,0,0,0,0,0,0,0,0,0,0,0,0,0,0,0,0,0,0,0,0,0,0,0,0,0,0,0,0,0,0,0,0,0,0,0,0,0,0,0,0,0,0,0,0,0,0,0,0,0,0,0,0,0,0],"split_type":[0,0,0,0,0,0,0,0,0,0,0,0,0,0,0,0,0,0,0,0,0,0,0,0,0,0,0,0,0,0,0,0,0,0,0,0,0,0,0,0,0,0,0,0,0,0,0,0,0,0,0,0,0,0,0,0,0,0,0,0,0,0,0,0,0,0,0,0,0,0,0,0,0,0,0,0,0,0,0,0,0,0,0,0,0,0,0,0,0,0,0,0,0,0,0,0,0,0,0,0,0,0,0,0,0,0,0,0,0,0,0,0,0,0,0,0,0,0,0,0,0,0,0,0,0,0,0],"sum_hessian":[1.6512E4,1.2932E4,3.58E3,5.087E3,7.845E3,2.316E3,1.264E3,1.446E3,3.641E3,1.453E3,6.392E3,6.46E2,1.67E3,6.43E2,6.21E2,5.9E2,8.56E2,1.868E3,1.773E3,5.59E2,8.94E2,3.456E3,2.936E3,1.99E2,4.47E2,8.19E2,8.51E2,4.03E2,2.4E2,4.74E2,1.47E2,5.22E2,6.8E1,1.93E2,6.63E2,1.62E2,1.706E3,4.37E2,1.336E3,2.36E2,3.23E2,7.33E2,1.61E2,1.585E3,1.871E3,1.112E3,1.824E3,1.5E1,1.84E2,8E1,3.67E2,2.71E2,5.48E2,4.42E2,4.09E2,5.1E1,3.52E2,1.88E2,5.2E1,6E0,4.68E2,8.5E1,6.2E1,3.34E2,1.88E2,1.2E1,5.6E1,1.49E2,4.4E1,4.12E2,2.51E2,1E0,1.61E2,5.23E2,1.183E3,1.1E1,4.26E2,2.77E2,1.059E3,1.45E2,9.1E1,1.75E2,1.48E2,4.24E2,3.09E2,9.4E1,6.7E1,9.15E2,6.7E2,1.734E3,1.37E2,8.84E2,2.28E2,1.48E3,3.44E2,2E0,1.3E1,1.19E2,6.5E1,3E0,7.7E1,3.51E2,1.6E1,1.11E2,1.6E2,5.24E2,2.4E1,2.94E2,1.48E2,3.67E2,4.2E1,1.1E1,4E1,5.6E1,2.96E2,8.1E1,1.07E2,1.2E1,4E1,5E0,1E0,4.61E2,7E0,6.5E1,2E1,2E0,6E1],"tree_param":{"num_deleted":"0","num_feature":"8","num_nodes":"127","size_leaf_vector":"1"}},{"base_weights":[5.2288384E-4,-2.614994E-1,6.506076E-1,-5.058791E-1,-7.5405516E-2,3.78008E-1,1.2274392E0,-2.428845E-1,-6.102304E-1,4.8907018E-1,-1.8610522E-1,7.242085E-1,1.7635357E-1,9.562659E-1,1.556513E0,-2.7653242E-2,-3.9102778E-1,-7.9253054E-1,-5.2286327E-1,8.5599914E-2,7.4449384E-1,-1.2098451E-1,-4.6064237E-1,3.66288E-1,8.860519E-1,4.8994023E-2,3.4456322E-1,7.4075747E-1,1.3021319E0,1.2717803E0,1.6786039E0,5.300706E-2,-6.3863415E-1,-3.4282535E-1,-7.695613E-1,-7.9602486E-1,8.3006404E-2,-2.556718E-1,-5.880147E-1,1.9596118E-1,-2.5365654E-1,8.8471E-1,2.1348653E-2,6.790577E-1,-1.784541E-1,-2.0780396E-1,-5.357823E-1,3.8274378E-2,4.8718503E-1,1.5803001E0,7.6758647E-1,1.1527484E-1,-2.6436707E-1,3.0456924E-1,8.7522745E-1,9.0188134E-1,5.8709013E-1,1.7460858E0,1.2134513E0,1.0035259E0,1.5624137E0,7.6264364E-1,1.7066921E0,1.2053812E-2,-1.4031175E-2,-2.4411345E-2,-3.7424337E-2,-1.39254695E-2,-3.1084016E-2,-3.8869575E-2,-6.4235035E-4,-2.5544489E-2,-4.0958155E-2,-5.5569797E-3,-2.5902033E-2,-2.0181803E-2,-3.2894365E-2,2.6298339E-2,-5.109828E-3,9.438651E-3,-1.9713772E-2,2.8366182E-2,5.9128087E-2,3.3267695E-2,-7.827668E-3,4.7359943E-2,2.3326619E-2,-4.822365E-3,-2.2805937E-2,6.1009224E-3,-3.5105214E-2,-3.0358583E-2,-2.2445899E-2,4.283454E-2,-2.5549976E-3,4.7169354E-2,1.9112116E-2,2.3690002E-2,8.176733E-2,4.1176926E-2,-2.2295967E-3,9.954079E-3,-1.3065851E-2,4.190391E-2,-1.4536912E-2,2.0453928E-2,9.000903E-3,4.8880912E-2,-2.3353664E-2,2.2598958E-2,4.900118E-2,2.3639638E-2,4.2029213E-2,9.094138E-2,2.183316E-2,6.177139E-2,2.028996E-3,3.8173407E-2,5.766818E-2,1.7932853E-2,7.91768E-2,-3.1822577E-2,5.6723475E-2,8.620961E-2,2.490207E-2],"categories":[],"categories_nodes":[],"categories_segments":[],"categories_sizes":[],"default_left":[0,0,0,0,0,0,0,0,0,0,0,0,0,0,0,0,0,0,0,0,0,0,0,0,0,0,0,0,0,0,0,0,0,0,0,0,0,0,0,0,0,0,0,0,0,0,0,0,0,0,0,0,0,0,0,0,0,0,0,0,0,0,0,0,0,0,0,0,0,0,0,0,0,0,0,0,0,0,0,0,0,0,0,0,0,0,0,0,0,0,0,0,0,0,0,0,0,0,0,0,0,0,0,0,0,0,0,0,0,0,0,0,0,0,0,0,0,0,0,0,0,0,0,0,0],"id":9,"left_children":[1,3,5,7,9,11,13,15,17,19,21,23,25,27,29,31,33,35,37,39,41,43,45,47,49,51,53,55,57,59,61,63,65,67,69,71,-1,73,75,77,79,81,83,85,87,89,91,93,95,97,99,101,103,105,107,109,111,113,115,117,119,121,123,-1,-1,-1,-1,-1,-1,-1,-1,-1,-1,-1,-1,-1,-1,-1,-1,-1,-1,-1,-1,-1,-1,-1,-1,-1,-1,-1,-1,-1,-1,-1,-1,-1,-1,-1,-1,-1,-1,-1,-1,-1,-1,-1,-1,-1,-1,-1,-1,-1,-1,-1,-1,-1,-1,-1,-1,-1,-1,-1,-1,-1,-1],"loss_changes":[2.8129397E3,5.352327E2,7.4550183E2,1.3948596E2,4.1769363E2,2.2487912E2,1.3432861E2,4.612687E1,5.7591797E1,1.128855E2,9.984682E1,6.8377014E1,4.3643406E1,6.1422913E1,2.1712769E1,2.9159458E1,1.5373199E1,1.1417358E1,4.276013E1,1.5999477E1,6.801825E1,2.0785022E2,2.023581E1,1.4693684E1,6.589838E1,2.4144247E1,1.8367561E1,1.2295929E1,1.0479614E1,1.4804443E1,1.0970581E1,3.2883614E1,7.746296E-1,1.3493187E1,5.588341E-1,7.3467407E0,0E0,1.8333988E1,2.5255676E1,3.1736534E1,6.6068945E0,5.2457275E1,1.2706844E1,1.6825089E1,9.595596E1,4.035441E1,4.843399E0,7.4314637E0,1.2613548E1,6.4124146E0,3.1801392E1,3.0318962E1,6.1454296E0,1.0574066E1,8.840416E0,8.381287E0,7.367531E0,4.0635223E0,6.9093018E0,3.1480484E0,1.949234E0,9.045554E0,8.913208E0,0E0,0E0,0E0,0E0,0E0,0E0,0E0,0E0,0E0,0E0,0E0,0E0,0E0,0E0,0E0,0E0,0E0,0E0,0E0,0E0,0E0,0E0,0E0,0E0,0E0,0E0,0E0,0E0,0E0,0E0,0E0,0E0,0E0,0E0,0E0,0E0,0E0,0E0,0E0,0E0,0E0,0E0,0E0,0E0,0E0,0E0,0E0,0E0,0E0,0E0,0E0,0E0,0E0,0E0,0E0,0E0,0E0,0E0,0E0,0E0,0E0,0E0],"parents":[2147483647,0,0,1,1,2,2,3,3,4,4,5,5,6,6,7,7,8,8,9,9,10,10,11,11,12,12,13,13,14,14,15,15,16,16,17,17,18,18,19,19,20,20,21,21,22,22,23,23,24,24,25,25,26,26,27,27,28,28,29,29,30,30,31,31,32,32,33,33,34,34,35,35,37,37,38,38,39,39,40,40,41,41,42,42,43,43,44,44,45,45,46,46,47,47,48,48,49,49,50,50,51,51,52,52,53,53,54,54,55,55,56,56,57,57,58,58,59,59,60,60,61,61,62,62],"right_children":[2,4,6,8,10,12,14,16,18,20,22,24,26,28,30,32,34,36,38,40,42,44,46,48,50,52,54,56,58,60,62,64,66,68,70,72,-1,74,76,78,80,82,84,86,88,90,92,94,96,98,100,102,104,106,108,110,112,114,116,118,120,122,124,-1,-1,-1,-1,-1,-1,-1,-1,-1,-1,-1,-1,-1,-1,-1,-1,-1,-1,-1,-1,-1,-1,-1,-1,-1,-1,-1,-1,-1,-1,-1,-1,-1,-1,-1,-1,-1,-1,-1,-1,-1,-1,-1,-1,-1,-1,-1,-1,-1,-1,-1,-1,-1,-1,-1,-1,-1,-1,-1,-1,-1,-1],"split_conditions":[4.5417E0,2.7813E0,6.2924E0,3.8976834E0,2.2105262E0,2.6877055E0,7.6659E0,2.8965516E0,1.962E0,2.5E1,3.794E1,2.2E1,5.3283E0,2.7E1,1.9E1,3.793E1,-1.1778E2,2.5636364E1,2.2873304E0,3.761E1,3.782E1,-1.2224E2,-1.2239E2,7.72E2,2.0756502E0,-1.1768E2,3.7E1,3.0088692E0,2.2600896E0,8.7471E0,1.38E2,-1.1821E2,-1.2171E2,3.443E1,4.074E3,2.02E0,8.3006404E-2,3.792E1,4.471328E0,-1.1831E2,-1.2246E2,3.4375E0,-1.2241E2,-1.2244E2,-1.1778E2,3.87E1,3.6187E0,-1.2217E2,2.048583E0,9.6218485E-1,3.8E1,3.792E1,1.38E2,3.1413794E0,3.3087718E0,9.656566E-1,7.0568E0,3.788E1,-1.1722E2,1.0094192E0,6.9E1,3.408E1,3.805E1,1.2053812E-2,-1.4031175E-2,-2.4411345E-2,-3.7424337E-2,-1.39254695E-2,-3.1084016E-2,-3.8869575E-2,-6.4235035E-4,-2.5544489E-2,-4.0958155E-2,-5.5569797E-3,-2.5902033E-2,-2.0181803E-2,-3.2894365E-2,2.6298339E-2,-5.109828E-3,9.438651E-3,-1.9713772E-2,2.8366182E-2,5.9128087E-2,3.3267695E-2,-7.827668E-3,4.7359943E-2,2.3326619E-2,-4.822365E-3,-2.2805937E-2,6.1009224E-3,-3.5105214E-2,-3.0358583E-2,-2.2445899E-2,4.283454E-2,-2.5549976E-3,4.7169354E-2,1.9112116E-2,2.3690002E-2,8.176733E-2,4.1176926E-2,-2.2295967E-3,9.954079E-3,-1.3065851E-2,4.190391E-2,-1.4536912E-2,2.0453928E-2,9.000903E-3,4.8880912E-2,-2.3353664E-2,2.2598958E-2,4.900118E-2,2.3639638E-2,4.2029213E-2,9.094138E-2,2.183316E-2,6.177139E-2,2.028996E-3,3.8173407E-2,5.766818E-2,1.7932853E-2,7.91768E-2,-3.1822577E-2,5.6723475E-2,8.620961E-2,2.490207E-2],"split_indices":[0,0,0,2,5,5,0,5,0,1,6,1,0,1,1,6,7,3,5,6,6,7,7,4,5,7,1,5,5,0,4,7,7,6,4,5,0,6,2,7,7,0,7,7,7,6,0,7,5,3,6,6,4,5,5,3,0,6,7,3,4,6,6,0,0,0,0,0,0,0,0,0,0,0,0,0,0,0,0,0,0,0,0,0,0,0,0,0,0,0,0,0,0,0,0,0,0,0,0,0,0,0,0,0,0,0,0,0,0,0,0,0,0,0,0,0,0,0,0,0,0,0,0,0,0],"split_type":[0,0,0,0,0,0,0,0,0,0,0,0,0,0,0,0,0,0,0,0,0,0,0,0,0,0,0,0,0,0,0,0,0,0,0,0,0,0,0,0,0,0,0,0,0,0,0,0,0,0,0,0,0,0,0,0,0,0,0,0,0,0,0,0,0,0,0,0,0,0,0,0,0,0,0,0,0,0,0,0,0,0,0,0,0,0,0,0,0,0,0,0,0,0,0,0,0,0,0,0,0,0,0,0,0,0,0,0,0,0,0,0,0,0,0,0,0,0,0,0,0,0,0,0,0],"sum_hessian":[1.6512E4,1.1769E4,4.743E3,5.087E3,6.682E3,3.222E3,1.521E3,1.446E3,3.641E3,1.095E3,5.587E3,1.185E3,2.037E3,8.36E2,6.85E2,5.9E2,8.56E2,1.177E3,2.464E3,4.25E2,6.7E2,4.517E3,1.07E3,3.7E2,8.15E2,1.16E3,8.77E2,5.17E2,3.19E2,2.09E2,4.76E2,5.22E2,6.8E1,7.61E2,9.5E1,1.176E3,1E0,4.84E2,1.98E3,3.21E2,1.04E2,5.61E2,1.09E2,3.02E2,4.215E3,2.46E2,8.24E2,1E2,2.7E2,1.17E2,6.98E2,9.58E2,2.02E2,8.17E2,6E1,2.5E2,2.67E2,5E1,2.69E2,1.11E2,9.8E1,1.5E1,4.61E2,3.34E2,1.88E2,3.1E1,3.7E1,6.2E2,1.41E2,9.4E1,1E0,9E1,1.086E3,3.13E2,1.71E2,5.46E2,1.434E3,1.52E2,1.69E2,2.5E1,7.9E1,2.73E2,2.88E2,2.3E1,8.6E1,1.32E2,1.7E2,3.255E3,9.6E2,1.48E2,9.8E1,4.49E2,3.75E2,9E0,9.1E1,4.9E1,2.21E2,6E0,1.11E2,6.53E2,4.5E1,7.84E2,1.74E2,4E0,1.98E2,4.43E2,3.74E2,5.6E1,4E0,3.8E1,2.12E2,1.86E2,8.1E1,4.7E1,3E0,2.64E2,5E0,4.5E1,6.6E1,2E0,9.6E1,3E0,1.2E1,4.54E2,7E0],"tree_param":{"num_deleted":"0","num_feature":"8","num_nodes":"125","size_leaf_vector":"1"}},{"base_weights":[5.477084E-4,-1.7719015E-1,8.6846805E-1,-3.6887315E-1,1.169408E-1,6.7063206E-1,1.4791669E0,-2.3781832E-2,-4.466209E-1,5.87471E-1,-2.8619364E-2,1.0205679E0,4.9320307E-1,1.2466772E0,1.6155379E0,1.09422535E-1,-4.7038513E-1,-3.1078994E-1,-5.7852566E-1,1.3793151E-1,7.636108E-1,1.0358245E-1,-1.7014575E-1,6.9844097E-1,1.151863E0,3.6542994E-1,7.835571E-1,1.046511E0,1.5791043E0,7.260678E-1,1.6460114E0,1.1129088E0,2.7310774E-2,-3.9913958E-1,-8.092736E-1,-1.742397E-1,-5.9546614E-1,-3.5120547E-1,-7.3156303E-1,2.855864E-1,-3.339573E-2,1.3364834E0,5.77874E-1,2.0168842E-1,-2.5156027E-1,5.87642E-2,-2.3605065E-1,-1.498053E-3,7.644116E-1,1.6839994E0,1.0666183E0,5.288545E-1,2.2130509E-1,6.699643E-1,1.1244448E0,5.118008E-1,1.1172222E0,2.7473008E-2,1.6183254E0,-3.062923E-2,1.0821095E0,1.6635938E0,5.457551E-1,-2.2322943E-2,6.1550666E-2,6.587048E-3,-2.8553758E-2,-8.093897E-3,-2.6476486E-2,-6.5903934E-3,-4.0926103E-2,1.0592105E-3,-1.8044183E-2,-2.7572189E-2,-4.358607E-2,-1.5900106E-3,-3.145657E-2,-3.1489275E-2,-4.3455813E-2,6.0199417E-2,5.84367E-3,6.8470323E-3,-1.5271007E-2,5.5755205E-2,8.329718E-2,3.4613896E-2,-3.9452366E-3,1.4328434E-2,-1.265281E-2,5.7677734E-3,-1.8379577E-2,1.116167E-2,-1.7200239E-2,-7.517551E-3,-2.6859254E-2,7.93446E-3,-2.408801E-2,2.8282741E-2,4.953098E-2,2.3829142E-2,8.760082E-2,4.4433903E-2,6.69629E-2,2.3317372E-2,4.9451064E-2,1.3543205E-2,-9.034576E-3,6.3875318E-3,3.4789417E-2,6.043914E-2,1.43091185E-2,-2.1850046E-2,3.1733736E-2,6.320015E-2,4.3889415E-2,8.194086E-2,2.354787E-2,-3.7314266E-3,7.1829684E-2,7.240475E-2,8.692662E-2,-8.295711E-3,4.0531527E-2],"categories":[],"categories_nodes":[],"categories_segments":[],"categories_sizes":[],"default_left":[0,0,0,0,0,0,0,0,0,0,0,0,0,0,0,0,0,0,0,0,0,0,0,0,0,0,0,0,0,0,0,0,0,0,0,0,0,0,0,0,0,0,0,0,0,0,0,0,0,0,0,0,0,0,0,0,0,0,0,0,0,0,0,0,0,0,0,0,0,0,0,0,0,0,0,0,0,0,0,0,0,0,0,0,0,0,0,0,0,0,0,0,0,0,0,0,0,0,0,0,0,0,0,0,0,0,0,0,0,0,0,0,0,0,0,0,0,0,0,0,0,0,0],"id":10,"left_children":[1,3,5,7,9,11,13,15,17,19,21,23,25,27,29,31,33,35,37,39,41,43,45,47,49,51,53,55,57,59,61,63,65,67,69,71,73,75,77,79,81,83,85,87,89,91,93,95,97,99,101,103,105,107,109,111,113,-1,115,-1,117,119,121,-1,-1,-1,-1,-1,-1,-1,-1,-1,-1,-1,-1,-1,-1,-1,-1,-1,-1,-1,-1,-1,-1,-1,-1,-1,-1,-1,-1,-1,-1,-1,-1,-1,-1,-1,-1,-1,-1,-1,-1,-1,-1,-1,-1,-1,-1,-1,-1,-1,-1,-1,-1,-1,-1,-1,-1,-1,-1,-1,-1],"loss_changes":[2.5474875E3,7.7284235E2,3.3814453E2,2.2265222E2,3.704817E2,1.3124896E2,1.9735474E1,9.089195E1,1.2117029E2,1.0108899E2,7.732753E1,2.9350891E1,5.2023865E1,1.5514923E1,1.0432983E1,9.695207E1,8.151627E0,1.2969186E2,1.1924158E2,9.141863E0,9.690613E1,7.4507286E1,3.0126102E1,9.651817E0,2.1111572E1,2.2988983E1,1.5897308E1,5.629059E0,2.947281E0,8.288739E0,7.100952E0,1.6940575E1,6.812635E1,8.947758E0,2.6804352E-1,8.2367485E1,1.26779785E1,1.2283908E2,2.8180298E1,2.9918873E1,7.8262134E0,1.4479889E1,5.227556E1,6.4725555E1,1.9754028E1,2.9687454E1,3.992025E1,1.5381557E0,8.027084E0,4.7494965E0,2.0058716E1,1.2741287E1,1.0468437E1,4.4618073E0,7.1479797E0,2.7255964E0,3.9512482E0,0E0,1.3677521E0,0E0,5.4378014E0,4.055298E0,1.6425254E0,0E0,0E0,0E0,0E0,0E0,0E0,0E0,0E0,0E0,0E0,0E0,0E0,0E0,0E0,0E0,0E0,0E0,0E0,0E0,0E0,0E0,0E0,0E0,0E0,0E0,0E0,0E0,0E0,0E0,0E0,0E0,0E0,0E0,0E0,0E0,0E0,0E0,0E0,0E0,0E0,0E0,0E0,0E0,0E0,0E0,0E0,0E0,0E0,0E0,0E0,0E0,0E0,0E0,0E0,0E0,0E0,0E0,0E0,0E0,0E0],"parents":[2147483647,0,0,1,1,2,2,3,3,4,4,5,5,6,6,7,7,8,8,9,9,10,10,11,11,12,12,13,13,14,14,15,15,16,16,17,17,18,18,19,19,20,20,21,21,22,22,23,23,24,24,25,25,26,26,27,27,28,28,29,29,30,30,31,31,32,32,33,33,34,34,35,35,36,36,37,37,38,38,39,39,40,40,41,41,42,42,43,43,44,44,45,45,46,46,47,47,48,48,49,49,50,50,51,51,52,52,53,53,54,54,55,55,56,56,58,58,60,60,61,61,62,62],"right_children":[2,4,6,8,10,12,14,16,18,20,22,24,26,28,30,32,34,36,38,40,42,44,46,48,50,52,54,56,58,60,62,64,66,68,70,72,74,76,78,80,82,84,86,88,90,92,94,96,98,100,102,104,106,108,110,112,114,-1,116,-1,118,120,122,-1,-1,-1,-1,-1,-1,-1,-1,-1,-1,-1,-1,-1,-1,-1,-1,-1,-1,-1,-1,-1,-1,-1,-1,-1,-1,-1,-1,-1,-1,-1,-1,-1,-1,-1,-1,-1,-1,-1,-1,-1,-1,-1,-1,-1,-1,-1,-1,-1,-1,-1,-1,-1,-1,-1,-1,-1,-1,-1,-1],"split_conditions":[5.3681E0,3.5547E0,7.6659E0,2.232E0,2.4149444E0,2.6575E0,2.2E1,3.792E1,3.444E1,2E1,2.9758065E0,2.2E1,6.5095E0,9.281E0,1.38E2,-1.2231E2,3.941E1,-1.178E2,-1.2162E2,-1.1829E2,1.9598699E0,3.788E1,-1.2149E2,3.69E2,2.0756502E0,3.0374532E0,2.7E1,9.683908E-1,8.5714287E-1,3.408E1,3.799E1,2E1,-1.1714E2,-1.2205E2,2.6544502E0,3.4362416E0,-1.1667E2,3.79E1,-1.2006E2,3.418E1,3.369E1,1.0829694E0,3.794E1,-1.1757E2,-1.2239E2,3.792E1,3.451E1,8.442105E0,1.0707692E0,9.0967745E-1,6.3525E0,3.7E1,3.776E1,5.9530516E0,-1.1792E2,8E0,-1.1782E2,2.7473008E-2,1.1415929E1,-3.062923E-2,2.1189592E0,8.1988E0,6.982709E0,-2.2322943E-2,6.1550666E-2,6.587048E-3,-2.8553758E-2,-8.093897E-3,-2.6476486E-2,-6.5903934E-3,-4.0926103E-2,1.0592105E-3,-1.8044183E-2,-2.7572189E-2,-4.358607E-2,-1.5900106E-3,-3.145657E-2,-3.1489275E-2,-4.3455813E-2,6.0199417E-2,5.84367E-3,6.8470323E-3,-1.5271007E-2,5.5755205E-2,8.329718E-2,3.4613896E-2,-3.9452366E-3,1.4328434E-2,-1.265281E-2,5.7677734E-3,-1.8379577E-2,1.116167E-2,-1.7200239E-2,-7.517551E-3,-2.6859254E-2,7.93446E-3,-2.408801E-2,2.8282741E-2,4.953098E-2,2.3829142E-2,8.760082E-2,4.4433903E-2,6.69629E-2,2.3317372E-2,4.9451064E-2,1.3543205E-2,-9.034576E-3,6.3875318E-3,3.4789417E-2,6.043914E-2,1.43091185E-2,-2.1850046E-2,3.1733736E-2,6.320015E-2,4.3889415E-2,8.194086E-2,2.354787E-2,-3.7314266E-3,7.1829684E-2,7.240475E-2,8.692662E-2,-8.295711E-3,4.0531527E-2],"split_indices":[0,0,0,5,5,5,1,6,6,1,5,1,0,0,4,7,6,7,7,7,5,6,7,4,5,5,1,3,3,6,6,1,7,7,2,5,7,6,7,6,6,3,6,7,7,6,6,2,3,3,0,1,6,2,7,1,7,0,2,0,5,0,2,0,0,0,0,0,0,0,0,0,0,0,0,0,0,0,0,0,0,0,0,0,0,0,0,0,0,0,0,0,0,0,0,0,0,0,0,0,0,0,0,0,0,0,0,0,0,0,0,0,0,0,0,0,0,0,0,0,0,0,0],"split_type":[0,0,0,0,0,0,0,0,0,0,0,0,0,0,0,0,0,0,0,0,0,0,0,0,0,0,0,0,0,0,0,0,0,0,0,0,0,0,0,0,0,0,0,0,0,0,0,0,0,0,0,0,0,0,0,0,0,0,0,0,0,0,0,0,0,0,0,0,0,0,0,0,0,0,0,0,0,0,0,0,0,0,0,0,0,0,0,0,0,0,0,0,0,0,0,0,0,0,0,0,0,0,0,0,0,0,0,0,0,0,0,0,0,0,0,0,0,0,0,0,0,0,0],"sum_hessian":[1.6512E4,1.3706E4,2.806E3,8.298E3,5.408E3,2.121E3,6.85E2,1.526E3,6.772E3,1.277E3,4.131E3,7.12E2,1.409E3,2.57E2,4.28E2,1.176E3,3.5E2,3.338E3,3.434E3,3.6E2,9.17E2,2.136E3,1.995E3,2.08E2,5.04E2,9.8E2,4.29E2,1.63E2,9.4E1,1.5E1,4.13E2,8.8E1,1.088E3,2.91E2,5.9E1,2.257E3,1.081E3,1.383E3,2.051E3,1.93E2,1.67E2,2.23E2,6.94E2,1.674E3,4.62E2,4.46E2,1.549E3,1.8E1,1.9E2,6.7E1,4.37E2,4.58E2,5.22E2,3.24E2,1.05E2,2E1,1.43E2,4E0,9E1,3E0,1.2E1,4.06E2,7E0,6E0,8.2E1,9.27E2,1.61E2,1.04E2,1.87E2,1E0,5.8E1,1.103E3,1.154E3,9.35E2,1.46E2,6.44E2,7.39E2,1.182E3,8.69E2,2.9E1,1.64E2,1.03E2,6.4E1,1.36E2,8.7E1,5.91E2,1.03E2,1.411E3,2.63E2,1.11E2,3.51E2,3.17E2,1.29E2,1.207E3,3.42E2,1.4E1,4E0,1.03E2,8.7E1,4E0,6.3E1,2.67E2,1.7E2,4.05E2,5.3E1,4.65E2,5.7E1,1.5E1,3.09E2,9.5E1,1E1,2E0,1.8E1,8.6E1,5.7E1,8.8E1,2E0,3E0,9E0,1.1E2,2.96E2,2E0,5E0],"tree_param":{"num_deleted":"0","num_feature":"8","num_nodes":"123","size_leaf_vector":"1"}},{"base_weights":[5.7311944E-4,-2.2341114E-1,6.271006E-1,-4.60064E-1,-5.326236E-2,3.7533978E-1,1.1265632E0,-2.1980166E-1,-5.553961E-1,4.5455313E-1,-1.5123935E-1,8.1380343E-1,2.2833794E-1,8.970611E-1,1.4332145E0,-4.5816287E-2,-3.7313882E-1,-6.706004E-1,-4.3370935E-1,8.412185E-2,6.916572E-1,2.610026E-1,-1.9029878E-1,4.4252867E-1,9.8289603E-1,1.2980257E-1,4.1753155E-1,7.039892E-1,1.2109423E0,1.290186E0,1.6055584E0,2.7713051E-2,-5.74144E-1,-1.5351714E-1,-4.356836E-1,-3.0454987E-1,-6.904663E-1,-2.1776092E-1,-5.0412947E-1,-1.020151E-1,2.4016266E-1,8.1831634E-1,2.8702378E-2,6.6987926E-1,-3.153192E-1,-7.774582E-2,-3.421896E-1,-3.3502224E-1,5.267854E-1,1.4951793E0,8.520408E-1,-8.499553E-2,2.1296549E-1,3.6101064E-1,9.466092E-1,1.000638E0,6.292073E-1,1.3046892E0,8.550882E-1,1.069745E0,1.5535026E0,1.581757E-1,1.6261108E0,5.8043385E-3,-2.9922143E-2,-6.023284E-3,-2.9779509E-2,-2.6706935E-4,-1.9570773E-2,-3.1425495E-2,-1.7688692E-2,5.8476772E-2,-1.6590184E-2,-3.4635093E-2,8.1718475E-2,5.3292103E-2,-1.2666205E-2,-1.4690632E-2,-2.7940622E-2,3.6250148E-3,-1.2971354E-2,-2.7744598E-3,2.376765E-2,7.520723E-2,3.5266683E-2,3.193626E-2,-6.2897312E-3,5.00358E-2,2.4376981E-2,1.124773E-3,-3.2985996E-2,1.4784395E-2,-9.639235E-3,-2.8188506E-3,-2.7219787E-2,-4.8074625E-2,-7.626444E-3,1.9499322E-2,4.8590355E-2,1.8787578E-2,7.68954E-2,4.5031413E-2,-3.2709804E-3,7.306229E-3,-7.125498E-3,1.3076841E-2,-1.2820805E-2,3.309798E-2,1.5268485E-2,-4.0027823E-2,5.177315E-2,3.707493E-2,6.656341E-2,2.5955593E-2,3.7682604E-2,7.719925E-2,5.6264788E-2,7.025143E-2,3.241401E-2,4.288238E-2,6.0274024E-2,1.0605975E-2,7.9381555E-2,5.0849624E-2,-1.5538829E-2,4.835802E-2,8.2242034E-2],"categories":[],"categories_nodes":[],"categories_segments":[],"categories_sizes":[],"default_left":[0,0,0,0,0,0,0,0,0,0,0,0,0,0,0,0,0,0,0,0,0,0,0,0,0,0,0,0,0,0,0,0,0,0,0,0,0,0,0,0,0,0,0,0,0,0,0,0,0,0,0,0,0,0,0,0,0,0,0,0,0,0,0,0,0,0,0,0,0,0,0,0,0,0,0,0,0,0,0,0,0,0,0,0,0,0,0,0,0,0,0,0,0,0,0,0,0,0,0,0,0,0,0,0,0,0,0,0,0,0,0,0,0,0,0,0,0,0,0,0,0,0,0,0,0,0,0],"id":11,"left_children":[1,3,5,7,9,11,13,15,17,19,21,23,25,27,29,31,33,35,37,39,41,43,45,47,49,51,53,55,57,59,61,63,65,67,69,71,73,75,77,79,81,83,85,87,89,91,93,95,97,99,101,103,105,107,109,111,113,115,117,119,121,123,125,-1,-1,-1,-1,-1,-1,-1,-1,-1,-1,-1,-1,-1,-1,-1,-1,-1,-1,-1,-1,-1,-1,-1,-1,-1,-1,-1,-1,-1,-1,-1,-1,-1,-1,-1,-1,-1,-1,-1,-1,-1,-1,-1,-1,-1,-1,-1,-1,-1,-1,-1,-1,-1,-1,-1,-1,-1,-1,-1,-1,-1,-1,-1,-1],"loss_changes":[2.3174473E3,4.8981372E2,5.464429E2,1.16417114E2,3.522292E2,1.8628235E2,1.0125366E2,3.858658E1,5.0765747E1,1.0050806E2,9.559854E1,4.514319E1,4.036223E1,4.9810425E1,1.3260864E1,2.6393425E1,1.0496246E1,1.338092E1,2.6867615E1,1.3036643E1,5.8587036E1,1.21332504E2,9.2649536E1,1.5179161E1,3.2109406E1,2.5508938E1,2.1847E1,1.0906067E1,9.459625E0,1.8363953E1,8.012573E0,3.3104897E1,7.3581123E-1,6.06104E0,9.2226715E0,4.3251524E0,1.0341858E1,2.0264263E1,1.5212341E1,5.650326E0,1.6992786E1,4.4346313E1,1.0730225E1,1.766983E1,2.491238E1,1.3387552E2,1.3329785E2,2.4828572E0,1.2222855E1,4.2053223E0,1.7845154E1,5.324627E0,2.352671E1,1.1050552E1,1.1851135E1,7.8378296E0,5.3357086E0,8.95163E0,6.936657E0,4.4648438E0,6.7590637E0,2.329778E0,1.7908325E0,0E0,0E0,0E0,0E0,0E0,0E0,0E0,0E0,0E0,0E0,0E0,0E0,0E0,0E0,0E0,0E0,0E0,0E0,0E0,0E0,0E0,0E0,0E0,0E0,0E0,0E0,0E0,0E0,0E0,0E0,0E0,0E0,0E0,0E0,0E0,0E0,0E0,0E0,0E0,0E0,0E0,0E0,0E0,0E0,0E0,0E0,0E0,0E0,0E0,0E0,0E0,0E0,0E0,0E0,0E0,0E0,0E0,0E0,0E0,0E0,0E0,0E0,0E0,0E0],"parents":[2147483647,0,0,1,1,2,2,3,3,4,4,5,5,6,6,7,7,8,8,9,9,10,10,11,11,12,12,13,13,14,14,15,15,16,16,17,17,18,18,19,19,20,20,21,21,22,22,23,23,24,24,25,25,26,26,27,27,28,28,29,29,30,30,31,31,32,32,33,33,34,34,35,35,36,36,37,37,38,38,39,39,40,40,41,41,42,42,43,43,44,44,45,45,46,46,47,47,48,48,49,49,50,50,51,51,52,52,53,53,54,54,55,55,56,56,57,57,58,58,59,59,60,60,61,61,62,62],"right_children":[2,4,6,8,10,12,14,16,18,20,22,24,26,28,30,32,34,36,38,40,42,44,46,48,50,52,54,56,58,60,62,64,66,68,70,72,74,76,78,80,82,84,86,88,90,92,94,96,98,100,102,104,106,108,110,112,114,116,118,120,122,124,126,-1,-1,-1,-1,-1,-1,-1,-1,-1,-1,-1,-1,-1,-1,-1,-1,-1,-1,-1,-1,-1,-1,-1,-1,-1,-1,-1,-1,-1,-1,-1,-1,-1,-1,-1,-1,-1,-1,-1,-1,-1,-1,-1,-1,-1,-1,-1,-1,-1,-1,-1,-1,-1,-1,-1,-1,-1,-1,-1,-1,-1,-1,-1,-1],"split_conditions":[4.6875E0,2.7813E0,6.3525E0,3.8976834E0,2.2105262E0,2.5298014E0,7.8287E0,3.1092784E0,2.2206E0,2.5E1,-1.2236E2,2.2E1,5.5942E0,2.7E1,3E1,-1.1715E2,3.045238E0,1.9127358E0,4.4259543E0,3.5268E0,3.782E1,3.832E1,3.451E1,3.69E2,2.0605633E0,1.7E1,3.7E1,2.6575E0,3.761E1,9.281E0,4.805646E0,3.792E1,9.166667E-1,-1.1826E2,1.8485E0,3E0,2.5636364E1,-1.2241E2,2.3372092E0,4.287395E0,1.6E1,-1.2241E2,-1.2245E2,2.6063492E0,3.87E1,-1.1828E2,-1.2166E2,4.1E1,5.7214E0,9.453125E-1,3.8E1,3.369E1,-1.1765E2,-1.2201E2,1.03E2,1.9E1,6.9343E0,2.5770235E0,-1.2242E2,1.0072993E0,6.9E1,9.281E0,1.38E2,5.8043385E-3,-2.9922143E-2,-6.023284E-3,-2.9779509E-2,-2.6706935E-4,-1.9570773E-2,-3.1425495E-2,-1.7688692E-2,5.8476772E-2,-1.6590184E-2,-3.4635093E-2,8.1718475E-2,5.3292103E-2,-1.2666205E-2,-1.4690632E-2,-2.7940622E-2,3.6250148E-3,-1.2971354E-2,-2.7744598E-3,2.376765E-2,7.520723E-2,3.5266683E-2,3.193626E-2,-6.2897312E-3,5.00358E-2,2.4376981E-2,1.124773E-3,-3.2985996E-2,1.4784395E-2,-9.639235E-3,-2.8188506E-3,-2.7219787E-2,-4.8074625E-2,-7.626444E-3,1.9499322E-2,4.8590355E-2,1.8787578E-2,7.68954E-2,4.5031413E-2,-3.2709804E-3,7.306229E-3,-7.125498E-3,1.3076841E-2,-1.2820805E-2,3.309798E-2,1.5268485E-2,-4.0027823E-2,5.177315E-2,3.707493E-2,6.656341E-2,2.5955593E-2,3.7682604E-2,7.719925E-2,5.6264788E-2,7.025143E-2,3.241401E-2,4.288238E-2,6.0274024E-2,1.0605975E-2,7.9381555E-2,5.0849624E-2,-1.5538829E-2,4.835802E-2,8.2242034E-2],"split_indices":[0,0,0,2,5,5,0,5,0,1,7,1,0,1,1,7,2,5,2,0,6,6,6,4,5,1,1,5,6,0,2,6,3,7,0,1,3,7,5,2,1,7,7,5,6,7,7,4,0,3,6,6,7,7,4,1,0,5,7,3,4,0,4,0,0,0,0,0,0,0,0,0,0,0,0,0,0,0,0,0,0,0,0,0,0,0,0,0,0,0,0,0,0,0,0,0,0,0,0,0,0,0,0,0,0,0,0,0,0,0,0,0,0,0,0,0,0,0,0,0,0,0,0,0,0,0,0],"split_type":[0,0,0,0,0,0,0,0,0,0,0,0,0,0,0,0,0,0,0,0,0,0,0,0,0,0,0,0,0,0,0,0,0,0,0,0,0,0,0,0,0,0,0,0,0,0,0,0,0,0,0,0,0,0,0,0,0,0,0,0,0,0,0,0,0,0,0,0,0,0,0,0,0,0,0,0,0,0,0,0,0,0,0,0,0,0,0,0,0,0,0,0,0,0,0,0,0,0,0,0,0,0,0,0,0,0,0,0,0,0,0,0,0,0,0,0,0,0,0,0,0,0,0,0,0,0,0],"sum_hessian":[1.6512E4,1.2164E4,4.348E3,5.087E3,7.077E3,2.892E3,1.456E3,1.446E3,3.641E3,1.144E3,5.933E3,7.25E2,2.167E3,8.35E2,6.21E2,6.78E2,7.68E2,1.868E3,1.773E3,4.47E2,6.97E2,5.13E2,5.42E3,2.28E2,4.97E2,1.426E3,7.41E2,5.19E2,3.16E2,3.44E2,2.77E2,5.96E2,8.2E1,1.71E2,5.97E2,9.7E1,1.771E3,4.37E2,1.336E3,2.04E2,2.43E2,5.85E2,1.12E2,3E2,2.13E2,3.114E3,2.306E3,2.2E1,2.06E2,9.9E1,3.98E2,3.98E2,1.028E3,6.71E2,7E1,1.02E2,4.17E2,2.48E2,6.8E1,1.9E2,1.54E2,4E0,2.73E2,5.23E2,7.3E1,4E0,7.8E1,1.06E2,6.5E1,1.76E2,4.21E2,1E0,9.6E1,1.77E3,1E0,1.1E1,4.26E2,2.77E2,1.059E3,9.7E1,1.07E2,1.08E2,1.35E2,8.1E1,5.04E2,2.2E1,9E1,1.05E2,1.95E2,1.08E2,1.05E2,7.33E2,2.381E3,9.56E2,1.35E3,4E0,1.8E1,1.59E2,4.7E1,4E0,9.5E1,3.78E2,2E1,7.9E1,3.19E2,9.32E2,9.6E1,1.03E2,5.68E2,3E0,6.7E1,5.9E1,4.3E1,2.24E2,1.93E2,1.03E2,1.45E2,1.7E1,5.1E1,7.7E1,1.13E2,4E0,1.5E2,1E0,3E0,9E0,2.64E2],"tree_param":{"num_deleted":"0","num_feature":"8","num_nodes":"127","size_leaf_vector":"1"}},{"base_weights":[6.108673E-4,-2.2573392E-1,5.621787E-1,-4.7152668E-1,-8.665673E-2,3.291423E-1,1.055289E0,-1.5680727E-1,-5.5194896E-1,3.1567544E-1,-1.9445086E-1,7.3121256E-1,1.9653063E-1,8.231656E-1,1.3369684E0,-9.576008E-4,-3.2812637E-1,-6.779053E-1,-4.678305E-1,-9.915298E-3,5.095361E-1,-1.3908534E-1,-4.2420992E-1,3.651716E-1,9.0610045E-1,-1.8842353E-2,2.8029758E-1,6.387646E-1,1.1190922E0,1.0893371E0,1.4431856E0,8.968145E-2,-5.9915936E-1,-2.7146506E-1,-6.219145E-1,-6.8076193E-1,7.967552E-2,-2.053521E-1,-5.235845E-1,-1.7266203E-1,1.8602028E-1,6.555924E-1,-9.378026E-2,5.551834E-1,-1.817526E-1,-3.7853247E-1,-7.0073146E-1,2.2905405E-1,8.0547225E-1,1.3706473E0,7.7436846E-1,-1.2230141E-1,1.2939309E-1,3.261502E-1,-2.1334554E-1,7.851802E-1,4.9925315E-1,1.5156765E0,1.040037E0,8.559473E-1,1.3423707E0,1.3209637E-1,1.4567944E0,1.3060132E-2,-6.993866E-3,-3.168781E-2,3.605136E-2,-1.5595021E-2,4.3819337E-3,-2.1482741E-2,-3.3501845E-2,-2.920965E-2,-3.734942E-2,-4.1244645E-3,-2.241713E-2,-1.8590054E-2,-3.0335387E-2,5.519594E-4,-1.5079962E-2,-3.450333E-3,1.9372938E-2,6.342404E-2,2.5976852E-2,5.2906885E-3,-2.181115E-2,4.1659858E-2,1.9161882E-2,-5.7541467E-3,-2.0914001E-2,-2.4554634E-3,-2.273406E-2,5.3210617E-3,-3.5320293E-2,-6.3735986E-4,2.2180092E-2,4.6851527E-2,-2.937829E-3,2.0174356E-2,7.094284E-2,4.101251E-2,-1.1296493E-3,4.5222114E-3,-9.664075E-3,-1.4140859E-3,1.3311657E-2,1.8959193E-2,-3.5611545E-3,-1.7681075E-2,1.9992373E-3,1.9019546E-2,4.300574E-2,1.9810084E-2,3.6408618E-2,7.903474E-2,1.7826954E-2,5.612542E-2,3.663393E-2,3.2041118E-2,4.9543485E-2,2.1153225E-2,6.83346E-2,-1.19055705E-2,4.957838E-2,7.360752E-2,3.397042E-2],"categories":[],"categories_nodes":[],"categories_segments":[],"categories_sizes":[],"default_left":[0,0,0,0,0,0,0,0,0,0,0,0,0,0,0,0,0,0,0,0,0,0,0,0,0,0,0,0,0,0,0,0,0,0,0,0,0,0,0,0,0,0,0,0,0,0,0,0,0,0,0,0,0,0,0,0,0,0,0,0,0,0,0,0,0,0,0,0,0,0,0,0,0,0,0,0,0,0,0,0,0,0,0,0,0,0,0,0,0,0,0,0,0,0,0,0,0,0,0,0,0,0,0,0,0,0,0,0,0,0,0,0,0,0,0,0,0,0,0,0,0,0,0,0,0],"id":12,"left_children":[1,3,5,7,9,11,13,15,17,19,21,23,25,27,29,31,33,35,37,39,41,43,45,47,49,51,53,55,57,59,61,63,65,67,69,71,-1,73,75,77,79,81,83,85,87,89,91,93,95,97,99,101,103,105,107,109,111,113,115,117,119,121,123,-1,-1,-1,-1,-1,-1,-1,-1,-1,-1,-1,-1,-1,-1,-1,-1,-1,-1,-1,-1,-1,-1,-1,-1,-1,-1,-1,-1,-1,-1,-1,-1,-1,-1,-1,-1,-1,-1,-1,-1,-1,-1,-1,-1,-1,-1,-1,-1,-1,-1,-1,-1,-1,-1,-1,-1,-1,-1,-1,-1,-1,-1],"loss_changes":[2.0990605E3,4.0230682E2,5.447982E2,1.07558716E2,3.2610986E2,1.7170413E2,9.841455E1,2.3148607E1,3.556897E1,1.0030153E2,7.537491E1,5.0817993E1,4.3755035E1,4.4959534E1,1.6471558E1,2.4724031E1,6.7061462E0,9.870117E0,2.9658478E1,1.8973518E1,8.782715E1,1.4169669E2,1.4272797E1,1.5397991E1,3.1984283E1,1.0444509E1,3.9590042E1,1.0189026E1,8.456299E0,1.1252655E1,8.318298E0,1.5628716E1,3.1974125E0,5.0804615E0,3.2274818E-1,8.216675E0,0E0,1.0650925E1,2.0932678E1,7.701252E0,1.38972435E1,6.621716E1,1.3374315E1,1.2922195E1,7.097638E1,2.4811996E1,8.1715393E-1,1.0381239E1,6.9905357E0,4.929428E0,1.5485916E1,6.0728636E0,6.0488734E0,3.3703476E1,5.309026E0,7.286316E0,6.033737E0,3.2800446E0,6.0216064E0,2.6158524E0,1.6352997E0,2.1452012E0,4.6343384E0,0E0,0E0,0E0,0E0,0E0,0E0,0E0,0E0,0E0,0E0,0E0,0E0,0E0,0E0,0E0,0E0,0E0,0E0,0E0,0E0,0E0,0E0,0E0,0E0,0E0,0E0,0E0,0E0,0E0,0E0,0E0,0E0,0E0,0E0,0E0,0E0,0E0,0E0,0E0,0E0,0E0,0E0,0E0,0E0,0E0,0E0,0E0,0E0,0E0,0E0,0E0,0E0,0E0,0E0,0E0,0E0,0E0,0E0,0E0,0E0,0E0,0E0],"parents":[2147483647,0,0,1,1,2,2,3,3,4,4,5,5,6,6,7,7,8,8,9,9,10,10,11,11,12,12,13,13,14,14,15,15,16,16,17,17,18,18,19,19,20,20,21,21,22,22,23,23,24,24,25,25,26,26,27,27,28,28,29,29,30,30,31,31,32,32,33,33,34,34,35,35,37,37,38,38,39,39,40,40,41,41,42,42,43,43,44,44,45,45,46,46,47,47,48,48,49,49,50,50,51,51,52,52,53,53,54,54,55,55,56,56,57,57,58,58,59,59,60,60,61,61,62,62],"right_children":[2,4,6,8,10,12,14,16,18,20,22,24,26,28,30,32,34,36,38,40,42,44,46,48,50,52,54,56,58,60,62,64,66,68,70,72,-1,74,76,78,80,82,84,86,88,90,92,94,96,98,100,102,104,106,108,110,112,114,116,118,120,122,124,-1,-1,-1,-1,-1,-1,-1,-1,-1,-1,-1,-1,-1,-1,-1,-1,-1,-1,-1,-1,-1,-1,-1,-1,-1,-1,-1,-1,-1,-1,-1,-1,-1,-1,-1,-1,-1,-1,-1,-1,-1,-1,-1,-1,-1,-1,-1,-1,-1,-1,-1,-1,-1,-1,-1,-1,-1,-1,-1,-1,-1,-1],"split_conditions":[4.5417E0,2.5909E0,6.2924E0,3.6454353E0,2.3019416E0,2.516854E0,7.6659E0,-1.1827E2,1.962E0,2.5E1,3.793E1,2.2E1,1.7E1,2.7E1,1.9E1,3.79E1,-1.1715E2,2.5636364E1,2.232E0,3.5268E0,3.782E1,-1.2224E2,3.941E1,5.6345E0,2.0756502E0,5.4011E0,-1.1765E2,3.0088692E0,2.2600896E0,8.7471E0,4.805646E0,3.1018634E0,3.886E3,3.412E1,2.0858505E0,3.513E1,7.967552E-2,3.796E1,4.471328E0,4.274194E0,1.6E1,-1.2227E2,-1.2205E2,-1.2245E2,-1.1775E2,-1.2239E2,6.9E1,1.118E3,3.796E1,9.6218485E-1,3.8E1,3.393E1,1.52E3,3.792E1,5.299E0,9.714286E-1,7.0568E0,3.788E1,3.761E1,1.0094192E0,8.5714287E-1,8.917526E-1,3.797E1,1.3060132E-2,-6.993866E-3,-3.168781E-2,3.605136E-2,-1.5595021E-2,4.3819337E-3,-2.1482741E-2,-3.3501845E-2,-2.920965E-2,-3.734942E-2,-4.1244645E-3,-2.241713E-2,-1.8590054E-2,-3.0335387E-2,5.519594E-4,-1.5079962E-2,-3.450333E-3,1.9372938E-2,6.342404E-2,2.5976852E-2,5.2906885E-3,-2.181115E-2,4.1659858E-2,1.9161882E-2,-5.7541467E-3,-2.0914001E-2,-2.4554634E-3,-2.273406E-2,5.3210617E-3,-3.5320293E-2,-6.3735986E-4,2.2180092E-2,4.6851527E-2,-2.937829E-3,2.0174356E-2,7.094284E-2,4.101251E-2,-1.1296493E-3,4.5222114E-3,-9.664075E-3,-1.4140859E-3,1.3311657E-2,1.8959193E-2,-3.5611545E-3,-1.7681075E-2,1.9992373E-3,1.9019546E-2,4.300574E-2,1.9810084E-2,3.6408618E-2,7.903474E-2,1.7826954E-2,5.612542E-2,3.663393E-2,3.2041118E-2,4.9543485E-2,2.1153225E-2,6.83346E-2,-1.19055705E-2,4.957838E-2,7.360752E-2,3.397042E-2],"split_indices":[0,0,0,2,5,5,0,7,0,1,6,1,1,1,1,6,7,3,5,0,6,7,6,0,5,0,7,5,5,0,2,5,4,6,5,6,0,6,2,2,1,7,7,7,7,7,4,4,6,3,6,6,4,6,0,3,0,6,6,3,3,3,6,0,0,0,0,0,0,0,0,0,0,0,0,0,0,0,0,0,0,0,0,0,0,0,0,0,0,0,0,0,0,0,0,0,0,0,0,0,0,0,0,0,0,0,0,0,0,0,0,0,0,0,0,0,0,0,0,0,0,0,0,0,0],"split_type":[0,0,0,0,0,0,0,0,0,0,0,0,0,0,0,0,0,0,0,0,0,0,0,0,0,0,0,0,0,0,0,0,0,0,0,0,0,0,0,0,0,0,0,0,0,0,0,0,0,0,0,0,0,0,0,0,0,0,0,0,0,0,0,0,0,0,0,0,0,0,0,0,0,0,0,0,0,0,0,0,0,0,0,0,0,0,0,0,0,0,0,0,0,0,0,0,0,0,0,0,0,0,0,0,0,0,0,0,0,0,0,0,0,0,0,0,0,0,0,0,0,0,0,0,0],"sum_hessian":[1.6512E4,1.1769E4,4.743E3,4.252E3,7.517E3,3.222E3,1.521E3,8.66E2,3.386E3,1.588E3,5.929E3,7.98E2,2.424E3,8.36E2,6.85E2,4.54E2,4.12E2,1.353E3,2.033E3,5.93E2,9.95E2,4.779E3,1.15E3,2.59E2,5.39E2,6.79E2,1.745E3,5.17E2,3.19E2,2.09E2,4.76E2,3.95E2,5.9E1,3.47E2,6.5E1,1.352E3,1E0,3.57E2,1.676E3,3.24E2,2.69E2,8.01E2,1.94E2,2.76E2,4.503E3,9.89E2,1.61E2,1.99E2,6E1,1.17E2,4.22E2,4E2,2.79E2,1.597E3,1.48E2,2.5E2,2.67E2,5E1,2.69E2,1.11E2,9.8E1,5E0,4.71E2,2.26E2,1.69E2,5.8E1,1E0,3.12E2,3.5E1,1.5E1,5E1,5.54E2,7.98E2,2.38E2,1.19E2,5.95E2,1.081E3,1.34E2,1.9E2,1.19E2,1.5E2,1.44E2,6.57E2,1.23E2,7.1E1,1.04E2,1.72E2,3.514E3,9.89E2,1.86E2,8.03E2,1E0,1.6E2,9.4E1,1.05E2,5.2E1,8E0,6E0,1.11E2,3.99E2,2.3E1,1E2,3E2,1.3E2,1.49E2,1.409E3,1.88E2,9.5E1,5.3E1,4E1,2.1E2,1.86E2,8.1E1,4.7E1,3E0,2.1E2,5.9E1,4.5E1,6.6E1,3E0,9.5E1,4E0,1E0,4.61E2,1E1],"tree_param":{"num_deleted":"0","num_feature":"8","num_nodes":"125","size_leaf_vector":"1"}},{"base_weights":[6.2647933E-4,-2.1445273E-1,5.3424406E-1,-4.164271E-1,-6.065055E-2,3.127481E-1,1.0029347E0,-1.9846791E-1,-5.0290996E-1,4.055638E-1,-1.5208045E-1,6.0305846E-1,1.4365055E-1,8.0004406E-1,1.2952201E0,-1.8165557E-2,-3.2257554E-1,-6.5803343E-1,-4.285739E-1,6.787657E-2,6.19348E-1,-2.2037048E-2,-2.582726E-1,3.0225056E-1,7.3908377E-1,3.8193036E-2,2.829359E-1,6.324698E-1,1.0922617E0,1.3760524E0,1.0270407E0,-3.0914232E-1,1.1623153E-1,-9.7210035E-2,-3.8793445E-1,-6.6123253E-1,7.768363E-2,-2.0731187E-1,-4.825282E-1,1.6611513E-1,-2.3403482E-1,7.355842E-1,1.9856438E-2,8.005869E-2,-3.1417578E-1,-2.1044289E-1,-4.628719E-1,1.2550235E-2,4.0910473E-1,1.2073448E0,6.2124646E-1,9.481038E-2,-2.2946328E-1,3.9522293E-1,1.3745405E-1,9.070875E-1,5.625923E-1,1.1813412E0,7.483365E-1,1.5883552E-1,1.3912858E0,8.536982E-1,1.3703856E0,-3.6960983E-4,-2.330452E-2,1.04239425E-2,-2.0883262E-2,3.0645655E-4,-2.1975687E-2,-2.9213374E-2,-1.6196536E-2,-2.0633504E-2,-3.407165E-2,-5.66365E-3,-2.477944E-2,-1.8288853E-2,-2.8616149E-2,2.3111168E-2,-5.0679706E-3,8.721246E-3,-1.8192941E-2,2.6233671E-2,5.4600783E-2,3.0155841E-2,-6.640613E-3,4.675244E-2,1.137625E-3,-1.2801133E-2,-3.238533E-2,-7.70878E-3,-2.4091104E-2,-1.4639109E-2,-3.0256111E-2,4.1519742E-2,-3.336548E-3,4.119226E-2,1.5692595E-2,3.9922852E-2,6.830658E-2,3.3342235E-2,-1.3033253E-3,8.302967E-3,-1.1266691E-2,4.0813938E-2,-1.2729256E-2,1.7184658E-2,4.1380364E-2,9.100658E-3,-1.1485906E-2,3.152753E-2,5.8399256E-2,4.333986E-2,2.556842E-2,6.0551167E-2,-2.7990136E-3,6.494416E-2,2.7361942E-2,-6.847569E-3,4.833892E-2,7.0206426E-2,2.378573E-2,4.3530345E-2,-2.0929307E-2,-2.6144898E-2,7.1089685E-2],"categories":[],"categories_nodes":[],"categories_segments":[],"categories_sizes":[],"default_left":[0,0,0,0,0,0,0,0,0,0,0,0,0,0,0,0,0,0,0,0,0,0,0,0,0,0,0,0,0,0,0,0,0,0,0,0,0,0,0,0,0,0,0,0,0,0,0,0,0,0,0,0,0,0,0,0,0,0,0,0,0,0,0,0,0,0,0,0,0,0,0,0,0,0,0,0,0,0,0,0,0,0,0,0,0,0,0,0,0,0,0,0,0,0,0,0,0,0,0,0,0,0,0,0,0,0,0,0,0,0,0,0,0,0,0,0,0,0,0,0,0,0,0,0,0],"id":13,"left_children":[1,3,5,7,9,11,13,15,17,19,21,23,25,27,29,31,33,35,37,39,41,43,45,47,49,51,53,55,57,59,61,63,65,67,69,71,-1,73,75,77,79,81,83,85,87,89,91,93,95,97,99,101,103,105,107,109,111,113,115,117,119,121,123,-1,-1,-1,-1,-1,-1,-1,-1,-1,-1,-1,-1,-1,-1,-1,-1,-1,-1,-1,-1,-1,-1,-1,-1,-1,-1,-1,-1,-1,-1,-1,-1,-1,-1,-1,-1,-1,-1,-1,-1,-1,-1,-1,-1,-1,-1,-1,-1,-1,-1,-1,-1,-1,-1,-1,-1,-1,-1,-1,-1,-1,-1],"loss_changes":[1.8953124E3,3.6559924E2,4.9217554E2,9.5807556E1,2.8493076E2,1.5813293E2,8.9221436E1,3.237351E1,4.1714844E1,7.908061E1,7.716229E1,4.830475E1,2.9924732E1,4.3429443E1,1.207019E1,2.3147831E1,1.2585587E1,9.362335E0,2.932721E1,1.2673756E1,4.67424E1,7.497819E1,3.000409E1,1.14794235E1,4.4275696E1,1.7615541E1,1.42884445E1,1.0523697E1,9.134186E0,8.586609E0,7.6385193E0,8.852709E0,2.0033548E1,6.8651285E0,8.15461E0,5.628662E0,0E0,1.3091843E1,2.0558746E1,2.5549706E1,5.6313925E0,4.1675568E1,9.875118E0,9.125869E1,1.2460869E1,3.8023796E1,1.3904495E1,6.6042223E0,1.044735E1,9.492142E0,1.9321075E1,2.1912148E1,5.5408173E0,1.0744476E1,6.3243847E0,7.560524E0,6.7403107E0,9.543213E0,7.039158E0,1.805254E0,4.8466187E0,2.537201E0,5.415291E0,0E0,0E0,0E0,0E0,0E0,0E0,0E0,0E0,0E0,0E0,0E0,0E0,0E0,0E0,0E0,0E0,0E0,0E0,0E0,0E0,0E0,0E0,0E0,0E0,0E0,0E0,0E0,0E0,0E0,0E0,0E0,0E0,0E0,0E0,0E0,0E0,0E0,0E0,0E0,0E0,0E0,0E0,0E0,0E0,0E0,0E0,0E0,0E0,0E0,0E0,0E0,0E0,0E0,0E0,0E0,0E0,0E0,0E0,0E0,0E0,0E0,0E0],"parents":[2147483647,0,0,1,1,2,2,3,3,4,4,5,5,6,6,7,7,8,8,9,9,10,10,11,11,12,12,13,13,14,14,15,15,16,16,17,17,18,18,19,19,20,20,21,21,22,22,23,23,24,24,25,25,26,26,27,27,28,28,29,29,30,30,31,31,32,32,33,33,34,34,35,35,37,37,38,38,39,39,40,40,41,41,42,42,43,43,44,44,45,45,46,46,47,47,48,48,49,49,50,50,51,51,52,52,53,53,54,54,55,55,56,56,57,57,58,58,59,59,60,60,61,61,62,62],"right_children":[2,4,6,8,10,12,14,16,18,20,22,24,26,28,30,32,34,36,38,40,42,44,46,48,50,52,54,56,58,60,62,64,66,68,70,72,-1,74,76,78,80,82,84,86,88,90,92,94,96,98,100,102,104,106,108,110,112,114,116,118,120,122,124,-1,-1,-1,-1,-1,-1,-1,-1,-1,-1,-1,-1,-1,-1,-1,-1,-1,-1,-1,-1,-1,-1,-1,-1,-1,-1,-1,-1,-1,-1,-1,-1,-1,-1,-1,-1,-1,-1,-1,-1,-1,-1,-1,-1,-1,-1,-1,-1,-1,-1,-1,-1,-1,-1,-1,-1,-1,-1,-1,-1,-1,-1],